tree
version=v3
num_class=1
num_tree_per_iteration=1
label_index=0
max_feature_idx=44
objective=binary sigmoid:1
feature_names=AB AF AM AR AX BC BD_ BN BP BQ BR CC CD_ CF CR CS CW_ DA DE DF DI DN DU DY EB EE EG EH EJ EL EP EU FC FD_ FE FI FL FR FS GB GE GF GH GI GL
feature_infos=[0.081186999999999995:6.1616660000000003] [192.59327999999999:28688.18766] [3.1775220000000002:630.51823000000002] [8.1386880000000001:178.943634] [0.69986099999999996:38.270879999999998] [1.2299:1463.693448] [1693.6243199999999:53060.599240000003] [9.8867999999999991:29.307300000000001] [72.948950999999994:2447.8105500000001] [1.3311550000000001:344.64410500000002] [51.216883000000003:179250.25289999999] [0.17687412:4.1030315999999996] [23.387599999999999:633.53440799999998] [0.51088800000000001:200.96752599999999] [0.069224999999999995:3.0396749999999999] [13.784110999999999:267.94282349999997] [7.03064:64.521624000000003] [6.9063999999999997:210.33091999999999] [35.998894999999997:2103.4051899999999] [0.23868:37.895012999999999] [60.232469999999999:1049.1680779999999] [6.3394959999999996:62.808095999999999] [0.0055176000000000001:161.35531499999999] [0.804068:152.355164] [4.9263960000000004:90.791994000000003] [0.28620099999999998:18.324926000000001] [185.5941:30243.75878] [0.003042:42.569747999999997] [0:1] [6.912477:109.125159] [78.526967999999997:1063.594578] [3.8283839999999998:6501.2644799999998] [7.5341279999999999:3030.6558239999999] [0.29685:1578.654237] [1655.963088:143224.68229999999] [3.58345:35.851039] [0.17322899999999999:137.93273880000001] [0.49706:1244.22702] [0.067729999999999999:31.365763000000001] [4.102182:135.781294] [72.611063000000001:1497.351958] [13.038894000000001:143790.07120000001] [9.4327349999999992:81.210825] [0.89762799999999998:191.19476399999999] [0.0011292780000000001:21.978000000000002]
tree_sizes=1040 1272 1066 1375 1924 1709 1821 1921 1817 1710 1608 2021 1706 1815 1605 2024 2029 1922 2028 2126 2024 2026 1921 1918 2026 1599 1930 1598 1712 1823 1824 1821 2246 2030 2136 2141 1923 1931 2029 2141 2331 2243 1911 2032 2039 2041 2151 1944 2149 2045

Tree=0
num_leaves=9
num_cat=0
split_feature=22 17 32 9 23 0 7 0
split_gain=117.838 40.7356 21.5326 14.7755 13.9606 1.02789 0.876215 7.10543e-15
threshold=2.2829070000000002 27.719690000000003 39.901176000000007 148.63999750000002 16.220612000000003 0.76273050000000009 16.419150000000005 0.40379850000000006
decision_type=2 2 2 2 2 2 2 2
left_child=1 -1 -2 5 -5 6 -3 -8
right_child=2 3 -4 4 -6 -7 7 -9
leaf_value=-1.392765576636289 -1.26465626050255 -1.5354742450359811 -1.4151025856031973 -1.5463325132837837 -1.4067262072406066 -1.5267876304377388 -1.5602931438881014 -1.5602931438881014
leaf_weight=5.0737917423248282 5.0737917423248273 4.029187560081481 4.4768750667572021 3.5815000534057608 3.5815000534057617 2.9845833778381339 21.787458658218387 8.5060626268386823
leaf_count=34 34 27 30 24 24 20 146 57
internal_value=-1.49913 -1.52699 -1.33518 -1.5423 -1.47653 -1.55493 -1.55738 -1.56029
internal_weight=0 49.5441 9.55067 44.4703 7.163 37.3073 34.3227 30.2935
internal_count=396 332 64 298 48 250 230 203
is_linear=0
shrinkage=1


Tree=1
num_leaves=11
num_cat=0
split_feature=22 17 35 9 29 23 0 7 0 0
split_gain=97.3138 35.9766 16.5965 13.9993 12.9636 12.0744 1.01883 0.876634 7.10543e-15 3.55271e-15
threshold=2.2829070000000002 27.719690000000003 8.9765422500000032 148.63999750000002 40.779024000000007 16.220612000000003 0.76273050000000009 16.419150000000005 0.40379850000000006 0.22005950000000005
decision_type=2 2 2 2 2 2 2 2 2 2
left_child=1 -1 -2 6 -4 -5 7 -3 9 -9
right_child=2 3 4 5 -6 -7 -8 8 -10 -11
leaf_value=0.094439532310863661 0.22348509769503672 -0.035364413884307631 0.024841781407334368 -0.046261285284294969 0.16373878619546323 0.082758286240767892 -0.026758628568106565 -0.060503723419669322 -0.060503723419669392 -0.060503723419669392
leaf_weight=5.4188826382160178 3.8333552628755552 3.9365024864673606 3.4176628589630127 3.4746097326278678 3.303804412484169 3.7929600477218628 2.9322943091392508 5.882107660174376 8.1775643080472928 15.063934251666067
leaf_count=34 23 27 21 24 20 24 20 41 57 105
internal_value=0 -0.0270106 0.140463 -0.0422239 0.0931139 0.0210743 -0.055005 -0.0575104 -0.0605037 -0.0605037
internal_weight=0 48.6789 10.5548 43.26 6.72147 7.26757 35.9924 33.0601 29.1236 20.946
internal_count=396 332 64 298 41 48 250 230 203 146
is_linear=0
shrinkage=0.05


Tree=2
num_leaves=9
num_cat=0
split_feature=22 17 9 32 14 0 7 0
split_gain=82.1278 32.0455 13.2757 12.4496 11.7548 1.01127 0.878836 7.10543e-15
threshold=2.2829070000000002 27.719690000000003 148.63999750000002 39.901176000000007 0.73638750000000008 0.76273050000000009 16.419150000000005 0.54908050000000008
decision_type=2 2 2 2 2 2 2 2
left_child=1 -1 5 -2 -4 6 -3 -8
right_child=3 2 4 -5 -6 -7 7 -9
leaf_value=0.08475427505413477 0.16976922630956578 -0.034398899994995402 0.090138032575942773 0.064629731291921705 -0.037023711935683538 -0.025876309437671746 -0.059887051029735044 -0.059887051029735051
leaf_weight=5.7276201248168936 6.345420837402342 3.8469475507736233 3.2815117090940467 5.0613741129636765 4.0731415301561356 2.8819671273231497 25.086633712053303 2.8946115821599951
leaf_count=34 34 27 21 30 27 20 182 21
internal_value=0 -0.0262007 -0.0413085 0.123117 0.0197135 -0.0542383 -0.0568064 -0.0598871
internal_weight=0 47.7924 42.0648 11.4068 7.35465 34.7102 31.8282 27.9812
internal_count=396 332 298 64 48 250 230 203
is_linear=0
shrinkage=0.05


Tree=3
num_leaves=12
num_cat=0
split_feature=22 0 18 9 35 9 9 10 30 17 7
split_gain=70.5228 29.6399 33.4696 12.1762 10.6507 10.4806 2.48805 0.936537 0.349344 0.00681896 0.000517727
threshold=2.2829070000000002 0.49780450000000004 182.45811750000004 135.87810250000004 8.9765422500000032 114.79583750000002 148.63999750000002 860.29482900000005 155.47357150000002 32.760780000000004 16.419150000000005
decision_type=2 2 2 2 2 2 2 2 2 2 2
left_child=1 6 -3 7 -2 -6 8 -4 9 -1 -11
right_child=4 2 3 -5 5 -7 -8 -9 -10 10 -12
leaf_value=-0.061892378725943997 0.16983121377376625 0.17091672898857249 -0.06055092438467622 0.062007519828385184 0.014185483297815889 0.13223931658679874 -0.018039855941049183 -0.023530614738344818 -0.040684997478537266 -0.06004209574004498 -0.059312326562301565
leaf_weight=3.1541519016027513 4.598041966557501 3.4027103185653678 4.5241958498954755 4.0043781846761703 3.7588982582092285 3.761259526014328 4.564525991678237 2.7448728382587433 2.6678584665060034 2.7855601906776455 19.059030532836914
leaf_count=21 23 20 32 25 21 20 30 20 20 20 144
internal_value=0 -0.0254212 0.0334794 -0.00800387 0.109884 0.0732309 -0.0522411 -0.0465717 -0.0578837 -0.0597192 -0.0594054
internal_weight=0 46.9073 14.6762 11.2734 12.1182 7.52016 32.2311 7.26907 27.6666 24.9987 21.8446
internal_count=396 332 97 77 64 41 235 52 205 185 164
is_linear=0
shrinkage=0.05


Tree=4
num_leaves=17
num_cat=0
split_feature=9 23 33 1 36 18 25 17 20 44 17 33 7 0 30 0
split_gain=45.2014 18.5734 18.2137 16.6014 13.2207 11.2251 11.4595 2.57323 1.22034 0.00807747 0.00271202 0.00102282 8.15412e-05 0.000136902 4.05293e-06 1.77636e-15
threshold=115.94334000000002 14.695578000000003 12.295527000000002 4707.8837300000005 6.3669864925000006 168.01332250000004 1.7313145000000001 71.858570000000014 194.42271750000003 0.10315714300000002 34.77741000000001 3.9837270000000005 18.537750000000006 0.49780450000000004 120.47382750000001 0.26706250000000004
decision_type=2 2 2 2 2 2 2 2 2 2 2 2 2 2 2 2
left_child=2 -2 5 4 -3 6 -1 8 9 -7 -11 12 -12 14 15 -14
right_child=1 3 -4 -5 -6 7 -8 -9 -10 10 11 -13 13 -15 -16 -17
leaf_value=0.088243418774600457 -0.0095051559732462834 -0.0042962894750474198 0.086339865475440536 0.17399329971070687 0.12281507197361836 -0.061911578729606703 -0.045184254163495051 -0.014630613538258909 -0.024187579143489804 -0.06079338751330754 -0.059197139969507095 -0.060011199723119246 -0.058776051885860041 -0.05920195537298626 -0.058850838805764263 -0.058776051885860006
leaf_weight=3.2636512219905844 5.5777061134576824 4.2748648077249509 3.2253651022911063 4.7514504343271247 3.9227296411991119 3.6778678745031455 3.1744655817747116 4.3612240701913825 2.6865953505039206 2.8302721977233913 2.7531112730503109 2.7158702909946433 3.1754728406667692 2.7525478452444068 2.5553601533174515 3.0484539270401001
leaf_count=20 36 27 17 25 21 25 23 32 19 20 21 20 25 21 20 24
internal_value=0 0.0667741 -0.0276138 0.0996309 0.0565293 -0.0375488 0.0224538 -0.0501909 -0.0561112 -0.0597595 -0.0593603 -0.0591218 -0.0589527 -0.0588943 -0.0587978 -0.0587761
internal_weight=0 18.5268 40.2203 12.949 8.19759 36.9949 6.43812 30.5568 26.1956 23.509 19.8311 17.0008 14.2849 11.5318 8.77929 6.22393
internal_count=396 109 287 73 48 270 43 227 195 176 151 131 111 90 69 49
is_linear=0
shrinkage=0.05


Tree=5
num_leaves=15
num_cat=0
split_feature=22 20 44 37 5 14 29 14 9 17 17 18 17 25
split_gain=57.5904 33.1432 12.0998 12.4998 8.51169 3.29436 7.16814 0.307132 0.0153688 0.00278289 0.0021357 0.000405358 8.59704e-05 2.30814e-05
threshold=1.6725225000000001 253.75252875000004 0.066935707000000011 1.3548800000000003 8.3580490000000029 0.66742500000000005 101.67793350000001 1.0270125000000003 158.25114500000004 45.255350000000007 34.77741000000001 205.15644750000004 67.877690000000015 3.1240250000000001
decision_type=2 2 2 2 2 2 2 2 2 2 2 2 2 2
left_child=1 4 -2 -4 5 6 9 8 10 -1 -7 -12 13 -13
right_child=2 -3 3 -5 -6 7 -8 -9 -10 -11 11 12 -14 -15
leaf_value=-0.061282473817108857 0.14418808816487055 0.12262757202985629 -0.004266503305891743 0.11013613357050012 0.025616632983621237 -0.060194185521117327 0.020748589288654348 -0.042104046108721392 -0.062547205346051335 -0.059161969708519904 -0.059127151661183812 -0.058534816661984228 -0.058777498696702318 -0.058372635287406771
leaf_weight=2.865460589528082 5.7442932575941077 3.452820621430873 4.8240517005324346 4.7275208830833435 4.5393004193902007 2.7358162328600981 4.8888859525322914 2.8798425272107115 3.4614602327346793 3.3633027374744415 3.7580779567360869 4.3543707951903325 2.6619737520813933 4.4213948324322701
leaf_count=20 27 20 28 24 31 20 35 22 22 26 29 35 21 36
internal_value=0 -0.0259903 0.0868436 0.0523567 -0.0388416 -0.0471092 -0.0245686 -0.0574334 -0.059497 -0.0601375 -0.0589082 -0.0586766 -0.0585286 -0.0584531
internal_weight=0 43.3827 15.2959 9.55157 39.9299 35.3906 11.1176 24.2729 21.3931 6.22876 17.9316 15.1958 11.4377 8.77577
internal_count=396 317 79 52 297 266 81 185 163 46 141 121 92 71
is_linear=0
shrinkage=0.05


Tree=6
num_leaves=16
num_cat=0
split_feature=22 20 44 37 0 11 0 10 9 17 18 5 17 41 35
split_gain=50.8205 29.1061 10.0072 12.3864 8.37336 7.74727 5.14319 0.375696 0.0162599 0.00332108 0.000552283 0.000265734 8.23442e-05 5.05559e-05 5.32437e-05
threshold=1.6725225000000001 253.75252875000004 0.072347865500000011 1.4471000000000001 0.81400650000000019 0.54971064000000014 0.36534150000000004 1600.6591595000002 151.33356750000004 34.177950000000003 156.40692750000002 5.0566460000000006 66.461490000000012 4347.260644500001 9.3583175000000018
decision_type=2 2 2 2 2 2 2 2 2 2 2 2 2 2 2
left_child=1 4 -2 -4 5 6 -1 8 9 -7 -11 12 13 -12 -15
right_child=2 -3 3 -5 -6 7 -8 -9 -10 10 11 -13 -14 14 -16
leaf_value=-0.046290833574524952 0.12278613636537275 0.10926887398808137 -0.018155948363110509 0.10252855983530151 0.046955644836322086 -0.06016796162500393 0.031566113016003032 -0.038724640696074467 -0.062123848632656048 -0.058970732901396719 -0.057870767267279404 -0.058605556271950771 -0.058317264013999164 -0.057919228730873101 -0.058214303298811734
leaf_weight=3.8020804375410062 7.2885834723711005 3.6749427765607825 4.1990417614579183 4.3066586852073669 2.7022550553083411 2.6878148615360358 4.7979680895805359 2.4996061921119681 3.676809534430503 2.559849418699744 3.7589265480637568 2.9922816082835189 2.9294726103544226 2.4772474840283394 3.9929276034235954
leaf_count=29 33 20 25 21 17 20 33 20 24 20 32 24 24 21 33
internal_value=0 -0.0252315 0.0797918 0.0429498 -0.0379454 -0.0442875 -0.00285443 -0.0572096 -0.0590523 -0.0585245 -0.0582884 -0.0581803 -0.0580835 -0.0580166 -0.0581013
internal_weight=0 42.5522 15.7943 8.5057 38.8772 36.175 8.60005 27.5749 25.0753 21.3985 18.7107 16.1509 13.1586 10.2291 6.47018
internal_count=396 317 79 46 297 280 62 218 198 174 154 134 110 86 54
is_linear=0
shrinkage=0.05


Tree=7
num_leaves=17
num_cat=0
split_feature=22 20 44 24 19 11 1 37 10 9 0 0 42 17 21 2
split_gain=45.1491 26.0639 8.60729 9.42301 7.96477 3.82365 4.81684 2.31286 0.394947 0.0112926 0.00357555 0.00348073 0.000249002 6.89047e-05 4.63307e-05 1.00644e-05
threshold=1.6725225000000001 232.36450500000004 0.066935707000000011 8.1935790000000015 1.4324310000000002 0.59194170000000013 3730.3428800000006 1.4801600000000001 1462.3109685000002 151.33356750000004 0.27454025000000004 0.50635050000000015 25.165123000000005 63.280860000000011 25.460344000000003 14.130062500000001
decision_type=2 2 2 2 2 2 2 2 2 2 2 2 2 2 2 2
left_child=1 4 -2 -4 5 6 7 10 9 11 -1 12 -7 14 15 -14
right_child=2 -3 3 -5 -6 8 -8 -9 -10 -11 -12 -13 13 -15 -16 -17
leaf_value=-0.058276203188169617 0.11989993016036721 0.09049714073421164 -0.022437278440110623 0.080095667352999167 0.04321974521810977 -0.058154476094744958 0.030533480277289967 -0.0027280541408701924 -0.037128424308575464 -0.061472529775663254 -0.06080829031391255 -0.059462312220370177 -0.057547578137827321 -0.057870784298816605 -0.057718772838442615 -0.057398390624216734
leaf_weight=2.6534350067377073 6.2394673377275494 4.4056563526391974 3.4072064161300641 6.5456162318587303 2.7862157374620429 3.2259145975113013 3.2434386387467375 2.6270220354199409 2.3838414847850791 2.9740416258573523 2.9378333315253258 3.8962882682681075 2.2767484411597234 2.6962524354457855 3.3529593124985695 2.2453899011015892
leaf_count=22 27 24 20 32 18 27 23 20 20 20 21 30 20 23 29 20
internal_value=0 -0.0245143 0.0738585 0.044995 -0.038099 -0.0446638 -0.0210623 -0.0414251 -0.0563991 -0.0586218 -0.0596066 -0.0581426 -0.05777 -0.0576526 -0.0575779 -0.0574735
internal_weight=0 41.705 16.1923 9.95282 37.2994 34.5132 11.4617 8.21829 23.0514 20.6676 5.59127 17.6936 13.7973 10.5714 7.8751 4.52214
internal_count=396 317 79 52 293 275 86 63 189 169 43 149 119 92 69 40
is_linear=0
shrinkage=0.05


Tree=8
num_leaves=16
num_cat=0
split_feature=22 20 35 5 20 0 33 36 12 9 17 18 22 24 31
split_gain=40.296 23.3399 8.15639 8.08098 4.89225 2.70062 7.73899 0.348112 0.298233 0.00736444 0.000975938 0.000204655 9.28817e-05 8.01342e-05 1.33619e-05
threshold=1.6725225000000001 232.36450500000004 10.276232000000002 8.3580490000000029 116.60581500000002 0.45507450000000005 0.35325150000000005 7.1189768765000006 71.784076000000013 153.25215000000003 34.77741000000001 224.22251250000002 0.34140150000000008 7.4355360000000008 20.406654000000003
decision_type=2 2 2 2 2 2 2 2 2 2 2 2 2 2 2
left_child=1 3 4 5 -2 7 -7 9 -8 10 -1 -12 13 14 -13
right_child=2 -3 -4 -5 -6 6 8 -9 -10 -11 11 12 -14 -15 -16
leaf_value=-0.058525499747937054 0.060318149149626257 0.08240001148339271 0.031017146261569137 0.025237332388489526 0.13508304994495499 0.046481728470970617 -0.038337394590598955 -0.037556738796837574 -0.060006185571582063 -0.060450451592247906 -0.057758701825850245 -0.057203424921993644 -0.057069852180882119 -0.057608030403948324 -0.057374883454232528
leaf_weight=2.5361150503158703 3.9758816435933131 4.5915236175060263 7.6761509925127021 4.528346709907054 4.8658002316951752 2.7690882980823499 2.4539831057190895 2.3278404027223578 4.4993012174963951 2.6571526378393164 4.1591784954071036 2.3090564757585508 2.3867070823907852 3.4255986958742142 2.2372531145811081
leaf_count=21 20 24 38 31 21 20 20 19 34 19 36 21 22 30 20
internal_value=0 -0.0238114 0.0687256 -0.0372497 0.101463 -0.0461587 -0.0242074 -0.0558425 -0.0523587 -0.058002 -0.0576205 -0.0574624 -0.0573435 -0.0574254 -0.0572878
internal_weight=0 40.8811 16.5178 36.2896 8.84168 31.7613 9.72237 22.0389 6.95328 19.7111 17.0539 14.5178 10.3586 7.97191 4.54631
internal_count=396 317 79 293 41 262 74 188 54 169 150 129 93 71 41
is_linear=0
shrinkage=0.05


Tree=9
num_leaves=15
num_cat=0
split_feature=22 14 0 44 37 7 8 17 0 11 20 16 0 42
split_gain=36.0271 22.2996 16.2363 7.11407 8.41238 4.20688 1.3361 0.0127662 0.00465559 0.00125802 0.00160884 0.000286829 0.000120116 3.84469e-05
threshold=1.6725225000000001 0.46888125000000008 0.9592885000000001 0.066935707000000011 1.3548800000000003 17.478450000000006 324.47637450000008 30.484190000000002 0.53412500000000007 0.5214729600000001 156.34727250000003 38.935964000000006 0.30551950000000005 35.397873000000011
decision_type=2 2 2 2 2 2 2 2 2 2 2 2 2 2
left_child=1 -1 5 -2 -5 -3 7 -7 9 -9 11 12 13 -11
right_child=3 2 -4 4 -6 6 -8 8 -10 10 -12 -13 -14 -15
leaf_value=0.078532384258929 0.1050297864381063 -0.0021471047815778813 0.069556223576102666 -0.0083924347034485206 0.081913957775816948 -0.061392253657261059 -0.020378190511093852 -0.058601050791265333 -0.059448359284473944 -0.056913775306957806 -0.058253375815371489 -0.057538825783559712 -0.057175367625657982 -0.056631047616178536
leaf_weight=4.7540701627731314 6.4998043179512051 4.3896036595106116 3.25654712319374 4.9921577721834165 5.3344923555850983 3.012323819100863 2.5536887124180785 2.5731447711587014 4.0771503075957289 2.8746332898735982 4.1182710230350486 2.797865390777587 3.5952323451638222 2.0671038553118706
leaf_count=28 27 36 18 28 24 21 21 21 32 27 35 25 33 20
internal_value=0 -0.0231303 -0.0368158 0.0640507 0.0382576 -0.047621 -0.0548352 -0.0583387 -0.0579225 -0.0575774 -0.057407 -0.0570995 -0.0569555 -0.0567955
internal_weight=0 40.0696 35.3156 16.8265 10.3267 32.059 27.6694 25.1157 22.1034 18.0263 15.4531 11.3348 8.53697 4.94174
internal_count=396 317 289 79 52 271 235 214 193 161 140 105 80 47
is_linear=0
shrinkage=0.05


Tree=10
num_leaves=14
num_cat=0
split_feature=22 5 14 30 0 37 23 9 17 11 18 16 42
split_gain=26.4727 21.9368 20.0827 11.2382 9.12567 2.21843 3.28412 0.0122674 0.00450272 0.000406723 0.000405272 8.94663e-05 6.66691e-05
threshold=2.2829070000000002 12.639858000000002 0.46888125000000008 94.149867500000013 0.81400650000000019 1.4534800000000001 20.896784000000004 140.78983000000002 31.155430000000006 0.56551401000000012 237.68273750000003 36.987082000000008 30.331731500000004
decision_type=2 2 2 2 2 2 2 2 2 2 2 2 2
left_child=1 2 -1 -2 5 7 -7 8 -4 -10 -11 12 -12
right_child=3 -3 4 -5 -6 6 -8 -9 9 10 11 -13 -14
leaf_value=0.069301896664378554 0.094481717693042422 0.1227436029166966 -0.059268239405516891 0.00054440138485034476 0.036000599365348031 -0.058094265968765192 0.0058422911771431321 -0.060467642214102127 -0.057427180809526183 -0.057310972562390809 -0.056713991774348438 -0.056885338597325134 -0.056371155516576892
leaf_weight=4.6724828779697409 8.966745048761366 2.5752048492431632 2.5116507261991599 4.9369126707315436 3.4431777298450461 4.1638297885656339 3.8799753785133362 3.6231950595974913 4.1306520998477962 3.505963295698165 3.1132807955145818 3.2824953943490982 2.60423793643713
leaf_count=27 39 13 20 22 21 36 33 26 37 32 30 31 26
internal_value=0 -0.0185889 -0.0279378 0.0611264 -0.0412002 -0.0498263 -0.0272541 -0.0577997 -0.0572949 -0.056997 -0.0568549 -0.0566773 -0.0565578
internal_weight=0 41.5061 38.9309 13.9037 34.2585 30.8153 8.04381 22.7715 19.1483 16.6366 12.506 9.00001 5.71752
internal_count=393 332 319 61 292 271 69 202 176 156 119 87 56
is_linear=0
shrinkage=0.05


Tree=11
num_leaves=18
num_cat=0
split_feature=9 23 33 14 12 20 25 30 5 12 41 27 20 4 40 29 25
split_gain=22.369 16.3222 12.2802 9.76441 15.1645 8.63299 6.78734 5.61879 0.942332 0.77748 0.385503 0.0734602 0.0101154 0.000939299 0.00035834 0.000148087 5.43159e-05
threshold=115.94334000000002 13.916216000000002 8.1989970000000003 0.59643750000000006 90.377218000000013 193.34592750000004 3.5734815000000002 96.272468500000016 5.7858010000000002 66.414838000000017 37443.386430000006 0.33157800000000004 190.04778750000003 7.0739115000000004 139.63241250000002 30.377704500000004 2.7027855000000005
decision_type=2 2 2 2 2 2 2 2 2 2 2 2 2 2 2 2 2
left_child=2 -2 3 4 9 6 7 -3 10 -1 11 12 13 14 15 -5 -17
right_child=1 5 -4 8 -6 -7 -8 -9 -10 -11 -12 -13 -14 -15 -16 16 -18
leaf_value=-0.058771618264130632 -0.0422191970355313 0.11112729573190049 0.054512231287510052 -0.056748088533851465 0.093337743763707501 0.12881293306635785 -0.011933614596139374 0.025769096748170933 -0.025428209107558265 -0.019805306334134843 -0.035866490211237195 -0.0673353680545246 -0.06037788503535655 -0.057649438822149041 -0.057114729766037375 -0.056460004715009018 -0.056143976662253306
leaf_weight=3.0387463420629519 4.3259656652808216 4.1260375753045064 4.4805347174406043 2.0760018005967229 3.3871437758207321 4.2015459388494483 3.5893483683466911 3.6189078986644745 2.9030638560652724 2.2119285389780998 2.1079701930284491 2.0842269808053961 2.2676490619778624 2.3428075164556494 2.1294921040534973 2.1189631819725037 3.7940001785755157
leaf_count=25 29 20 23 20 21 18 24 20 24 18 19 13 18 21 20 21 39
internal_value=0 0.0436774 -0.0227755 -0.0341435 0.0108532 0.0675954 0.0449024 0.0712428 -0.0519528 -0.0423565 -0.0560224 -0.0585495 -0.0573063 -0.0567473 -0.0565384 -0.0563848 -0.0562572
internal_weight=0 19.8618 34.9425 30.462 8.63782 15.5358 11.3343 7.74495 21.8242 5.25067 18.9211 16.8131 14.7289 12.4613 10.1185 7.98897 5.91296
internal_count=393 111 282 259 64 82 64 40 195 43 171 152 139 121 100 80 60
is_linear=0
shrinkage=0.05


Tree=12
num_leaves=15
num_cat=0
split_feature=22 5 20 30 9 11 12 7 17 9 15 9 16 6
split_gain=22.1729 20.2404 11.1511 9.41823 5.04063 2.08945 3.79906 0.468328 0.0027443 0.00149344 0.00143832 0.000599915 0.0001664 3.39162e-05
threshold=2.2829070000000002 13.880300000000002 203.60272875000001 94.149867500000013 161.03979750000005 0.54971064000000014 76.540876000000011 17.125350000000001 36.751360000000005 109.61188750000001 44.23956900000001 19.546617500000004 36.692912000000007 5118.3300800000006
decision_type=2 2 2 2 2 2 2 2 2 2 2 2 2 2
left_child=1 2 4 -2 5 6 -1 -7 -9 10 11 -10 13 -13
right_child=3 -3 -4 -5 -6 7 -8 8 9 -11 -12 12 -14 -15
leaf_value=-0.057450806702269791 0.08525510105640334 0.11820504253586184 0.039100545204113102 -0.00042786230432378871 0.0089850824928844868 -0.030992053486884476 0.017461444540774956 -0.058128612940515467 -0.056962238557821399 -0.057891134096315869 -0.057556102020239079 -0.055662075173337489 -0.056254298307735151 -0.055929806755470247
leaf_weight=3.6321792230010059 9.1401845961809141 2.5630914270877829 5.4511600434780112 4.9408161789178839 4.8034473285078993 1.9159356951713586 3.1690644398331642 3.9325208291411426 1.9856783151626576 2.053835190832614 2.3381473794579497 2.2831555679440481 3.5293688476085663 2.4546569958329201
leaf_count=33 39 12 32 22 32 18 25 35 19 18 21 25 36 26
internal_value=0 -0.0177385 -0.027018 0.0551902 -0.0382468 -0.0465589 -0.0225452 -0.0545285 -0.0569559 -0.056641 -0.056437 -0.0561818 -0.0559944 -0.0558008
internal_weight=0 40.1122 37.5491 14.081 32.098 27.2945 6.80124 20.4933 18.5774 14.6448 12.591 10.2529 8.26718 4.73781
internal_count=393 332 320 61 288 256 58 198 180 145 127 106 87 51
is_linear=0
shrinkage=0.05


Tree=13
num_leaves=16
num_cat=0
split_feature=9 23 14 12 27 14 8 24 30 44 0 20 11 7 31
split_gain=18.8928 14.1971 11.216 10.9875 8.84163 7.07456 5.1386 3.59022 0.453575 0.0316559 0.00758136 0.00150532 0.000792956 0.000132517 3.81664e-05
threshold=115.94334000000002 13.916216000000002 0.59643750000000006 90.377218000000013 0.42892200000000008 0.68640000000000012 223.25753250000005 8.5558140000000016 156.31705050000002 0.10163564650000002 0.66017850000000011 175.14215250000004 0.5639411700000001 19.243950000000002 6.3869700000000007
decision_type=2 2 2 2 2 2 2 2 2 2 2 2 2 2 2
left_child=2 -2 3 7 8 -3 -7 -1 9 -4 11 12 -11 -14 -15
right_child=1 5 4 -5 -6 6 -8 -9 -10 10 -12 -13 13 14 -16
leaf_value=-0.057443872582142091 -0.041538915924404729 0.097457248065626514 -0.062506059313291285 0.08677247751396705 0.022979663229186785 -0.0098515133325480873 0.068244585374345273 0.022177042613203336 -0.032876796449124612 -0.056655489232220108 -0.059461322728258749 -0.057481927916845803 -0.056038706530017912 -0.055395840382477968 -0.055665748130529741
leaf_weight=3.1058871373534185 4.2460869699716595 7.3159125447273246 2.758179999887953 4.019164189696312 4.4850864782929412 4.1007297262549383 4.3308664709329605 2.6018760427832603 2.0792830586433402 2.9487652331590635 2.0733652561902991 1.9221034571528424 1.9923410490155218 2.108215257525444 3.4582203924655914
leaf_count=29 29 34 23 23 23 25 23 17 20 29 17 18 21 24 38
internal_value=0 0.0396012 -0.0217996 0.0234443 -0.0402707 0.0614795 0.0302623 -0.0211488 -0.0549385 -0.0575961 -0.0566623 -0.0561954 -0.0559601 -0.0556888 -0.0555635
internal_weight=0 19.9936 33.5525 9.72693 23.8256 15.7475 8.4316 5.70776 19.3405 17.2612 14.503 12.4296 10.5075 7.55878 5.56644
internal_count=393 111 282 69 213 82 48 46 190 170 147 130 112 83 62
is_linear=0
shrinkage=0.05


Tree=14
num_leaves=14
num_cat=0
split_feature=22 0 14 9 30 9 37 0 14 40 5 9 8
split_gain=18.9502 17.5474 14.4956 8.55118 7.96963 3.70533 0.448112 0.00825989 0.00190689 0.00111256 0.00123915 0.000145473 9.04548e-05
threshold=2.2829070000000002 0.49780450000000004 0.59276250000000008 135.87810250000004 94.149867500000013 148.63999750000002 1.7484100000000002 0.74777500000000019 0.58560000000000012 147.60068050000004 6.0950330000000017 86.927547500000017 170.39190375000001
decision_type=2 2 2 2 2 2 2 2 2 2 2 2 2
left_child=1 5 -3 7 -2 6 8 -4 -1 10 11 12 -10
right_child=4 2 3 -5 -6 -7 -8 -9 9 -11 -12 -13 -14
leaf_value=-0.05732360755250613 0.077984260631047353 0.079174483133612458 -0.056429545711796827 0.043041026734593479 -0.00081608632485859276 -0.0013575974600116023 -0.03107140101080021 -0.060436276622269303 -0.055594730495976519 -0.056880532794440747 -0.056921085091936441 -0.055831685207208825 -0.055198156101553944
leaf_weight=3.6719749197363951 9.2261142730712873 6.7571502625942221 3.1306228861212713 3.447146087884903 4.9195645004510871 4.0993422493338576 1.9584747776389111 2.183343730866909 2.7787258103489858 3.0430088415741912 1.9802338853478421 2.7477639615535736 2.9798112884163857
leaf_count=34 39 36 32 19 22 29 20 17 31 30 19 30 35
internal_value=0 -0.0170289 0.024149 -0.0182904 0.0505792 -0.0445021 -0.053733 -0.0580758 -0.0563131 -0.0560388 -0.0557946 -0.0555324 -0.0553895
internal_weight=0 38.7776 15.5183 8.76111 14.1457 23.2593 19.16 5.31397 17.2015 13.5295 10.4865 8.5063 5.75854
internal_count=393 332 104 68 61 228 199 49 179 145 115 96 66
is_linear=0
shrinkage=0.05


Tree=15
num_leaves=18
num_cat=0
split_feature=1 0 22 14 15 9 37 22 19 5 22 9 17 14 0 21 7
split_gain=18.706 13.1095 15.9733 13.1701 6.76491 5.586 3.52432 1.76957 1.28877 0.656979 0.0159645 0.00734769 0.00394575 0.00252338 0.000720635 0.000401522 0.000201647
threshold=2791.0483150000005 0.37816050000000007 2.8726005000000003 0.76575000000000004 36.404280000000007 118.64342250000001 1.3548800000000003 2.7484545000000002 0.89838450000000003 4.209772000000001 0.93454350000000008 129.19758000000004 36.751360000000005 0.68640000000000012 0.45507450000000005 27.094692000000006 19.597050000000003
decision_type=2 2 2 2 2 2 2 2 2 2 2 2 2 2 2 2 2
left_child=7 2 8 4 6 -5 -3 9 10 11 13 12 -1 -2 16 -15 -14
right_child=1 3 -4 5 -6 -7 -8 -9 -10 -11 -12 -13 14 15 -16 -17 -18
leaf_value=-0.058041419709432676 -0.057613232447182583 0.065335938287881576 0.080814441681004989 -0.060210587300473878 0.024198709864015986 0.029823177709486167 0.12649718944241348 -0.0066374233977568439 -0.013681914486130041 -0.032317772850210959 -0.061341129542973341 -0.059462606280367342 -0.055649944481859698 -0.055070931531814228 -0.056463730197399323 -0.056085010307564666 -0.055005647603005796
leaf_weight=2.2438251823186892 2.3011171594262105 4.7237295433878916 3.0810247957706443 3.2946009486913672 5.0690520778298369 3.6110215112566948 4.6978878155350685 2.6722071915864936 2.0930566266179076 3.6102976873517028 2.0958880409598351 2.1791944056749335 2.2528696209192276 2.1590582057833676 1.8392804265022276 1.7816009968519209 2.6345023140311241
leaf_count=21 22 25 13 29 29 19 23 12 18 31 18 17 25 26 19 19 32
internal_value=0 0.0193445 -0.0192134 0.0436938 0.0707741 -0.013131 0.0958327 -0.0440775 -0.0487597 -0.0508558 -0.0575654 -0.0568584 -0.0562258 -0.0562976 -0.0556201 -0.0555294 -0.0553026
internal_weight=0 34.908 13.5117 21.3963 14.4907 6.90562 9.42162 17.4322 10.4307 14.76 8.33766 11.1497 8.97048 6.24178 6.72665 3.94066 4.88737
internal_count=398 241 116 125 77 48 48 157 103 145 85 114 97 67 76 45 57
is_linear=0
shrinkage=0.05


Tree=16
num_leaves=18
num_cat=0
split_feature=1 0 22 14 17 37 2 4 22 8 44 0 14 11 43 31 33
split_gain=17.3208 11.7607 14.6802 11.5664 6.64927 6.43477 3.89877 1.89084 1.56072 1.34658 0.014463 0.00404106 0.00189788 0.00115937 0.000822371 0.000229411 0.000185378
threshold=2791.0483150000005 0.37816050000000007 2.8726005000000003 0.76575000000000004 38.776720000000005 1.5671600000000001 35.150950000000009 7.8667920000000011 2.5346475000000006 273.65288400000003 0.14446410550000002 0.49780450000000004 0.7110375000000001 0.57175947000000005 64.846550000000022 18.582348000000003 1.5139350000000003
decision_type=2 2 2 2 2 2 2 2 2 2 2 2 2 2 2 2 2
left_child=7 2 9 4 -3 -6 -5 8 11 10 -2 13 -12 -1 16 -14 -15
right_child=1 3 -4 6 5 -7 -8 -9 -10 -11 12 -13 15 14 -16 -17 -18
leaf_value=-0.056790283810950519 -0.060573475036853001 0.0980766421514183 0.076480897305308909 0.024184499748633417 -0.013324339032415606 0.082953735348615262 -0.051533583358310257 0.00011659299033981341 -0.010402687200625127 -0.01141343881412697 -0.057122669070987279 -0.058040468105708211 -0.054776396067662471 -0.054964694515283678 -0.056472116000817724 -0.055561564487566883 -0.055624338520563338
leaf_weight=3.0045968964695948 2.2870327234268171 7.7335827797651309 3.0924803167581549 3.4907231554388991 3.7875334024429321 3.2032053172588348 3.3141699358820915 2.1827743351459494 2.1504468917846671 2.0047137960791579 1.9934565946459768 3.1986326053738585 1.6634703055024149 2.6816667690873146 1.888017766177654 2.1107944026589394 1.7667731419205663
leaf_count=30 20 33 13 25 28 16 23 15 10 18 20 29 21 33 20 24 20
internal_value=0 0.0184595 -0.0187933 0.0412168 0.0661311 0.0307909 -0.0126923 -0.0433056 -0.0497576 -0.0480824 -0.0572088 -0.0565066 -0.0558747 -0.0559814 -0.0555978 -0.0552155 -0.0552267
internal_weight=0 34.6812 13.1519 21.5292 14.7243 6.99074 6.80489 16.8729 14.6901 10.0595 8.05475 12.5397 5.76772 9.34105 6.33646 3.77426 4.44844
internal_count=398 241 116 125 77 44 48 157 142 103 85 132 65 103 73 45 53
is_linear=0
shrinkage=0.05


Tree=17
num_leaves=17
num_cat=0
split_feature=1 9 23 14 27 27 4 27 26 27 17 0 5 9 14 12
split_gain=16.0662 11.0155 9.06207 8.01312 7.64573 2.89047 1.83522 1.6089 1.28357 0.0304508 0.00400084 0.00162625 0.00159016 0.00131 0.00022569 4.90532e-05
threshold=2791.0483150000005 115.94334000000002 15.634406000000002 0.56778750000000011 0.62969400000000009 0.11255400000000002 7.8667920000000011 0.42892200000000008 1291.4045250000001 0.30724200000000007 36.751360000000005 0.36534150000000004 5.0056930000000017 97.358170942549393 0.65377500000000011 70.892176000000021
decision_type=2 2 2 2 2 2 2 2 2 2 2 2 2 2 2 2
left_child=6 3 -3 -2 8 -4 7 10 -5 11 -1 -10 13 14 -12 -16
right_child=1 2 5 4 -6 -7 -8 -9 9 -11 12 -13 -14 -15 15 -17
leaf_value=-0.057773571875305102 0.044665611188289267 -0.0055248131305005461 0.10405492737454064 -0.020965511823167516 0.052205174809711423 0.051232111018888075 0.00011075755643549948 -0.0089142177412231249 -0.0547866571911289 -0.062958517072571871 -0.055352930106650149 -0.056470254659538012 -0.056939231803511361 -0.056381732788784805 -0.054448727439062032 -0.05483792054683493
leaf_weight=3.0633728951215771 5.2013435736298588 5.1427314803004256 4.8052570819854719 3.5445324629545194 2.4214998036622992 5.6171674877405167 2.1829014495015135 2.1137343347072592 2.9789937436580658 1.8596031889319418 1.6908685714006404 2.7662251368165016 1.9608850032091139 2.0769319236278534 1.6449824869632723 1.5942590832710264
leaf_count=29 31 33 21 36 11 27 15 10 38 16 20 28 19 22 22 20
internal_value=0 0.0176864 0.048787 -0.00810099 -0.028325 0.0755861 -0.0425603 -0.0491455 -0.0458151 -0.0573973 -0.0562135 -0.0555973 -0.0556806 -0.0553284 -0.0548847 -0.0546403
internal_weight=0 34.3374 15.5652 18.7722 13.5709 10.4224 16.3279 14.145 11.1494 7.60482 12.0313 5.74522 8.96793 7.00704 4.93011 3.23924
internal_count=398 241 81 160 129 48 157 142 118 82 132 66 103 84 62 42
is_linear=0
shrinkage=0.05


Tree=18
num_leaves=18
num_cat=0
split_feature=1 0 14 17 42 9 27 4 22 33 12 17 14 5 9 14 12
split_gain=14.8915 10.4088 7.66402 5.8835 7.1824 5.07391 2.25851 1.78114 1.7505 1.08652 0.00872123 0.00388325 0.00335873 0.00134546 0.00111637 0.000192482 4.16975e-05
threshold=2791.0483150000005 0.27026725000000007 0.69380625000000007 38.776720000000005 33.306671000000009 118.64342250000001 0.54451800000000017 7.8667920000000011 2.7484545000000002 3.9985695000000008 91.362272000000004 36.751360000000005 0.73301250000000007 5.0056930000000017 97.358170942549393 0.65377500000000011 70.892176000000021
decision_type=2 2 2 2 2 2 2 2 2 2 2 2 2 2 2 2 2
left_child=7 9 3 -3 -5 6 10 8 11 12 -4 -1 -2 14 15 -13 -17
right_child=1 2 5 4 -6 -7 -8 -9 -10 -11 -12 13 -14 -15 -16 16 -18
leaf_value=-0.057447817515609526 -0.057747467779511487 0.083017617474111682 -0.054978088699072836 -0.010706635819427972 0.087954041823116946 0.031288872072704484 0.0069279471040108054 0.00010521184448966451 -0.0049936832921993069 -0.0083821434102931032 -0.059822337755918033 -0.055067007548180683 -0.054955790305171483 -0.05655852770904779 -0.056037835161212773 -0.054213125523635719 -0.054580226650609742
leaf_weight=3.0700441896915427 2.0294274911284438 7.8800547644496026 2.0151586830615984 5.4635976701974851 2.7849776595830917 6.1213776245713234 2.1684596985578537 2.1830222085118285 1.9731328636407841 1.631476394832134 1.7239434346556661 1.6165438294410686 2.2967672869563103 1.8774886205792425 1.9874559119343755 1.5713839083909991 1.5234849676489828
leaf_count=30 20 36 25 38 15 34 11 15 9 16 17 20 29 19 22 22 20
internal_value=0 0.0168892 0.0295931 0.0521208 0.0226043 -0.00061235 -0.0336682 -0.0418231 -0.0485436 -0.0431528 -0.0572116 -0.0559218 -0.0562654 -0.0553756 -0.055044 -0.0546248 -0.0543938
internal_weight=0 34.1152 28.1576 16.1286 8.24858 12.0289 5.90756 15.8026 13.6195 5.95767 3.7391 11.6464 4.32619 8.57636 6.69887 4.71141 3.09487
internal_count=398 241 176 89 53 87 53 157 142 65 42 133 49 103 84 62 42
is_linear=0
shrinkage=0.05


Tree=19
num_leaves=19
num_cat=0
split_feature=1 0 5 14 36 22 11 4 22 36 22 9 17 14 5 9 14 8
split_gain=13.81 9.5309 6.88354 7.18036 8.74578 6.97169 8.70719 2.19935 1.41592 1.16774 1.08104 0.0420763 0.00330657 0.00238046 0.00113946 0.000951939 0.000164251 3.80243e-05
threshold=2791.0483150000005 0.27026725000000007 13.880300000000002 0.43398750000000003 8.4424926030000034 0.072418500000000011 0.69602148000000008 7.9420935000000012 2.7484545000000002 6.3669864925000006 0.57245100000000015 107.083735 36.751360000000005 0.73301250000000007 5.0056930000000017 97.358170942549393 0.65377500000000011 170.99490150000003
decision_type=2 2 2 2 2 2 2 2 2 2 2 2 2 2 2 2 2 2
left_child=7 10 3 -3 5 6 -5 8 12 11 13 -7 -1 -2 15 16 -14 -18
right_child=1 2 -4 4 -6 9 -8 -9 -10 -11 -12 -13 14 -15 -16 -17 17 -19
leaf_value=-0.057042657195961979 -0.057121822309623531 0.079543593343988972 0.09592994827270962 0.076284036747737732 0.049860446409394431 -0.05647220174102046 -0.058236606401284578 0.008279718871304128 -0.011612673076042747 -0.019300512247523792 -0.0075963804040765403 -0.065389844773262984 -0.054797627592941725 -0.054727733359416157 -0.056200908821407193 -0.055714176860684528 -0.054335015946666933 -0.053976180556079237
leaf_weight=2.9405329525470725 2.0227389931678763 4.1031802594661775 3.3060906976461402 3.3080603033304232 7.5859213769435874 2.9752373322844505 1.8903164640069006 1.9651581197977055 2.1884396225213996 2.5447219237685204 1.6065088585019109 2.3815547376871109 1.5450719594955424 2.1333911791443825 1.7969986870884893 1.9012310057878492 1.5266720578074457 1.4295677021145818
leaf_count=30 21 18 14 21 36 33 20 14 10 18 16 16 20 28 19 22 21 21
internal_value=0 0.0161462 0.0281607 0.0191223 0.00713735 -0.0176029 0.0273675 -0.0411005 -0.0483811 -0.0471887 -0.0424288 -0.0604369 -0.0556042 -0.0558929 -0.0550883 -0.0547761 -0.0543798 -0.0541615
internal_weight=0 33.8577 28.0951 24.789 20.6858 13.0999 5.19838 15.2937 13.3285 7.90151 5.76264 5.35679 11.1401 4.15613 8.19954 6.40254 4.50131 2.95624
internal_count=398 241 176 162 144 108 41 157 143 67 65 49 133 49 103 84 62 42
is_linear=0
shrinkage=0.05


Tree=20
num_leaves=18
num_cat=0
split_feature=5 22 14 30 12 11 9 21 16 9 27 34 0 17 33 6 7
split_gain=17.257 11.0203 11.7849 7.12632 6.15268 2.90111 4.48668 1.13844 0.414017 0.0147225 0.0103013 0.00167275 0.00161165 0.000552942 0.000386076 0.000163399 4.40429e-05
threshold=13.880300000000002 2.7484545000000002 0.46888125000000008 94.149867500000013 210.27236200000002 0.61228917000000005 135.87810250000004 20.959916000000003 41.962672000000005 168.60471750000002 0.30724200000000007 10259.402050000002 0.40379850000000006 37.223750000000003 1.1458410000000001 4911.6927000000005 19.597050000000003
decision_type=2 2 2 2 2 2 2 2 2 2 2 2 2 2 2 2 2
left_child=1 2 -1 -3 5 6 7 -4 9 10 12 -9 13 -7 -14 -15 -17
right_child=-2 3 4 -5 -6 8 -8 11 -10 -11 -12 -13 14 15 -16 16 -18
leaf_value=0.0426475999442728 0.097827223389192697 0.06755114771963118 -0.010466394716260756 -0.011594542552136704 0.051638806123744753 -0.055231501088989644 0.0340909000395321 -0.05488637839338284 -0.029500068152413423 -0.059583475778281172 -0.058837950320717508 -0.056893371239018997 -0.056242260015047035 -0.054519885447102671 -0.055220246852731192 -0.054180592600637616 -0.053802707372443026
leaf_weight=5.8505432382225981 4.2318566888570777 6.7644083946943265 2.0207705125212723 4.907552033662796 1.9000580310821522 1.7593268491327778 2.7855918630957603 2.9136100821197033 1.6046331524848927 2.6299381405115119 1.9421862512826908 1.6129234060645101 1.8786641806364062 2.450526662170887 1.8185460232198236 1.410423815250397 1.7010079249739645
leaf_count=33 18 29 24 22 12 22 18 37 16 21 18 17 20 33 22 20 26
internal_value=0 -0.00768867 -0.021977 0.0342738 -0.0352767 -0.041502 -0.0190583 -0.0416709 -0.0536835 -0.0561726 -0.0554804 -0.0556015 -0.0548886 -0.0544589 -0.0557396 -0.0542145 -0.053974
internal_weight=0 45.9507 34.2788 11.672 28.4282 26.5281 9.3329 6.5473 17.1953 15.5906 12.9607 4.52653 11.0185 7.32129 3.69721 5.56196 3.11143
internal_count=408 390 339 51 306 294 96 78 198 182 161 54 143 101 42 79 46
is_linear=0
shrinkage=0.05


Tree=21
num_leaves=18
num_cat=0
split_feature=5 36 14 1 35 22 11 32 37 14 22 24 9 0 20 9 30
split_gain=15.5906 13.5189 9.14321 6.30472 4.47326 2.73377 2.8048 3.25721 4.47781 1.30221 0.0463233 0.0147326 0.0127426 0.00337863 0.00121471 0.000455572 0.000106092
threshold=13.880300000000002 10.524098195000002 0.46888125000000008 6350.7285600000005 10.176998000000003 4.9934280000000006 0.64393263000000012 30.781968000000003 1.4369500000000002 0.85848750000000007 1.6380375000000003 8.9728260000000013 151.33356750000004 0.58753750000000016 162.78259875000003 97.358170942549393 83.947015750000006
decision_type=2 2 2 2 2 2 2 2 2 2 2 2 2 2 2 2 2
left_child=1 2 -1 5 -3 6 7 11 9 -9 12 -4 13 14 15 16 -8
right_child=-2 4 3 -5 -6 -7 10 8 -10 -11 -12 -13 -14 -15 -16 -17 -18
leaf_value=0.034738805247962155 0.092871367524017201 0.085415227873265026 -0.054322786302185733 0.048231103594067945 0.01384299809328203 0.018119439281653115 -0.053607258270691821 -0.055110568837900435 0.05376283540304342 0.0031055775288860903 -0.064117897313786074 -0.060203302554665689 -0.058788968761951214 -0.056780361392408767 -0.055440177651345152 -0.054813431426737329 -0.054101834717749188
leaf_weight=6.1422802209854117 4.2346477806568137 4.2167546898126584 2.4964911937713712 2.2562994472682467 4.526652991771698 1.9711877107620228 2.1256746351718885 2.4975478574633598 2.3712309971451759 1.5609356388449667 1.8761938586831082 1.8576233573257921 2.7103234604001036 2.0371958352625361 2.5175314918160439 1.7591909952461717 2.2133399099111557
leaf_count=34 18 19 35 16 22 9 34 31 17 15 13 16 23 21 30 23 32
internal_value=0 -0.00746651 -0.020879 -0.0321719 0.0483607 -0.0386522 -0.0429525 -0.0234389 -0.000825787 -0.03272 -0.0567609 -0.0568316 -0.0557279 -0.0549492 -0.0545162 -0.0541347 -0.0538595
internal_weight=0 45.1365 36.393 30.2508 8.74341 27.9945 26.0233 10.7838 6.42971 4.05848 15.2395 4.35411 13.3633 10.6529 8.61574 6.09821 4.33901
internal_count=408 390 349 315 41 299 290 114 63 46 176 51 163 140 119 89 66
is_linear=0
shrinkage=0.05


Tree=22
num_leaves=17
num_cat=0
split_feature=5 36 14 1 35 0 44 26 16 12 27 9 20 38 11 38
split_gain=14.1388 12.3517 8.43867 5.83205 4.10399 2.22385 1.8761 0.839017 1.40436 0.497752 0.0798967 0.0131567 0.00133354 0.000848565 0.000181077 5.24129e-05
threshold=13.880300000000002 10.524098195000002 0.46888125000000008 6350.7285600000005 10.176998000000003 0.81400650000000019 0.10904558800000001 904.8013625000001 37.104658000000008 138.58144000000001 0.51714000000000004 134.80614500000004 162.78259875000003 0.53845350000000003 0.5214729600000001 0.13207350000000004
decision_type=2 2 2 2 2 2 2 2 2 2 2 2 2 2 2 2
left_child=1 2 -1 5 -3 6 -4 8 -8 10 11 12 13 14 -9 -16
right_child=-2 4 3 -5 -6 -7 7 9 -10 -11 -12 -13 -14 -15 15 -17
leaf_value=0.03272495891947317 0.088504594483929666 0.08179264587167305 -0.012808653304833198 0.045136585142236632 0.013127963204944283 0.0043799152068514455 -0.054478238505428239 -0.054324371527293129 0.01095089362304056 -0.02722154870296048 -0.066526652515795134 -0.058192700634412467 -0.055486143514924514 -0.0550458543970824 -0.053511425702573383 -0.053848515144431675
leaf_weight=6.1929028406739226 4.2216780036687842 4.1841396167874318 4.292425066232691 2.289548732340335 4.5343401469290257 2.7824104204773894 1.9101581200957327 1.4487063549458996 1.437146048992872 1.5917931757867325 1.7928976789116848 3.0072225928306571 2.3287669271230698 1.9074330180883405 2.2575771883130074 2.3571957238018513
leaf_count=34 18 19 34 16 22 20 27 20 17 18 11 27 28 24 37 36
internal_value=0 -0.00725736 -0.0203214 -0.031494 0.0460813 -0.0379649 -0.0428073 -0.0492331 -0.0263866 -0.0538147 -0.0566181 -0.0552831 -0.0544336 -0.0541261 -0.0538367 -0.0536836
internal_weight=0 44.3147 35.5962 29.4033 8.71848 27.1137 24.3313 20.0389 3.3473 16.6916 15.0998 13.3069 10.2997 7.97091 6.06348 4.61477
internal_count=408 390 349 315 41 299 279 245 44 201 183 172 145 117 93 73
is_linear=0
shrinkage=0.05


Tree=23
num_leaves=17
num_cat=0
split_feature=9 35 23 18 36 29 16 37 12 33 22 14 0 40 11 0
split_gain=10.9423 10.0483 7.30472 7.21668 4.23447 4.21305 3.26481 3.18366 1.4599 0.600408 0.104606 0.00362285 0.00152794 0.00054258 4.29938e-05 3.71487e-05
threshold=115.94334000000002 8.9765422500000032 15.465956000000002 179.83259750000005 7.7845810190000009 47.092402500000006 37.439492000000008 1.5671600000000001 92.884448000000006 12.295527000000002 1.9415055000000001 0.59276250000000008 0.56189950000000011 175.01037400000004 0.63818748000000014 0.33970350000000005
decision_type=2 2 2 2 2 2 2 2 2 2 2 2 2 2 2 2
left_child=1 3 4 -1 -2 -4 -5 9 -7 10 11 -3 13 14 -13 -16
right_child=2 7 5 6 -6 8 -8 -9 -10 -11 -12 12 -14 -15 15 -17
leaf_value=0.078876456973009282 -0.052425404436347536 -0.056200424191164111 0.012550127341006507 0.016675550054779584 0.033119887339444536 0.044635890921188796 -0.057752274075392157 -0.0014168537829455611 0.085856476061308112 -0.024977591453715208 -0.068052608964562306 -0.053800964945143172 -0.05571800372870718 -0.054748747969266279 -0.053363826622251642 -0.053706421762419104
leaf_weight=3.4998171851038951 3.5102747716009643 2.9831959232687968 5.1004274114966384 4.0294881723821163 2.4606290757656097 3.5657879672944528 2.3227619007229805 3.8555440865457049 5.4022809192538261 1.7127555534243573 1.7089540883898724 1.6872632913291452 1.2842740342020986 1.2750519588589666 2.1161609962582593 1.2638281695544717
leaf_count=20 31 34 32 37 13 20 27 37 24 9 10 26 15 17 36 20
internal_value=0 -0.0193243 0.0291656 0.0212242 -0.0171719 0.0488321 -0.0105397 -0.0416582 0.0694668 -0.0527157 -0.0565723 -0.0547231 -0.0541453 -0.0538268 -0.0535948 -0.0534919
internal_weight=0 27.7391 20.0394 9.85207 5.9709 14.0685 6.35225 17.887 8.96807 14.0315 12.3187 10.6098 7.62658 6.3423 5.06725 3.37999
internal_count=408 288 120 84 44 76 64 204 44 167 158 148 114 99 82 56
is_linear=0
shrinkage=0.05


Tree=24
num_leaves=18
num_cat=0
split_feature=5 36 0 33 22 35 34 11 32 5 23 22 9 20 40 0 25
split_gain=12.0909 10.818 7.36375 10.3924 5.12873 3.71907 2.99047 1.99083 3.02774 0.440999 0.218127 0.0571293 0.00511723 0.00155432 0.00023664 0.000101975 2.71755e-05
threshold=13.880300000000002 10.524098195000002 0.56617250000000008 0.51355050000000013 4.9934280000000006 10.176998000000003 7601.198311000001 0.61228917000000005 35.714280000000009 7.9996210000000003 25.860444000000005 1.7601267160714282 120.75738000000001 162.78259875000003 196.98384475000003 0.37388750000000009 3.7830935000000006
decision_type=2 2 2 2 2 2 2 2 2 2 2 2 2 2 2 2 2
left_child=1 2 4 -4 7 -3 -5 8 10 11 -1 12 13 14 15 16 -9
right_child=-2 5 3 6 -6 -7 -8 9 -10 -11 -12 -13 -14 -15 -16 -17 -18
leaf_value=-0.058828285320501134 0.082307131756432575 0.077337224055729417 0.073248293878145673 -0.060695407886068031 0.047171543886866771 0.011687503699826435 0.010487015915915584 -0.053388152101385512 0.0094574342002305169 -0.026437819084884503 -0.034809334942022895 -0.064528754025511559 -0.056637478650448062 -0.055100670569967751 -0.054218760055608106 -0.053813478380394644 -0.053085270779252618
leaf_weight=2.9091522134840542 4.1634574681520453 4.1301515549421293 4.461639039218424 3.1881184428930283 1.7664640545845021 4.5162453576922417 2.7466573417186737 2.2988482080399977 3.9807082787156105 1.4074735529720772 1.4001890048384664 1.6844755634665478 2.4424632489681235 2.4206232763826847 1.2102177701890466 1.2859139069914816 1.0925509482622144
leaf_count=33 18 19 23 30 8 22 21 39 39 13 17 11 26 31 18 20 20
internal_value=0 -0.00693417 -0.0195351 0.0155926 -0.0348161 0.0430466 -0.0277517 -0.0413597 -0.0219821 -0.0529646 -0.0510241 -0.0559671 -0.0546256 -0.0540341 -0.0535956 -0.0534343 -0.0532906
internal_weight=0 42.9419 34.2955 10.3964 23.8991 8.6464 5.93478 22.1326 8.29005 13.8426 4.30934 12.4351 10.7506 8.30815 5.88753 4.67731 3.3914
internal_count=408 390 349 74 275 41 51 267 89 178 50 165 154 128 97 79 59
is_linear=0
shrinkage=0.05


Tree=25
num_leaves=14
num_cat=0
split_feature=22 14 35 10 7 1 35 0 9 0 32 14 41
split_gain=9.65343 8.33087 6.64706 4.05344 1.88238 1.48507 0.622066 0.014169 0.0070233 0.00086287 0.000228742 0.000187765 5.52363e-05
threshold=1.6725225000000001 0.46888125000000008 10.276232000000002 2479.1977725000002 17.478450000000006 5054.436200000001 12.872855000000003 0.55762650000000014 137.411145 0.42943650000000005 35.805672000000008 0.71951250000000011 14247.925555000002
decision_type=2 2 2 2 2 2 2 2 2 2 2 2 2
left_child=1 -1 -2 4 -3 6 7 8 9 10 12 -12 -6
right_child=2 3 -4 -5 5 -7 -8 -9 -10 -11 11 -13 -14
leaf_value=0.035101658511941643 0.065200635708049598 0.0006401960905955198 -0.0052064475939874099 0.041964155349637107 -0.053468980136309664 -0.010700336687168428 -0.020589469146583175 -0.058152064423889885 -0.056978530748568838 -0.054833612247910057 -0.054277458913637583 -0.05343662997129725 -0.053076309222803202
leaf_weight=5.4125991612672832 7.0063308551907522 2.4467101953923764 6.4276231229305267 1.612957827746867 1.6595003642141839 2.5241822935640803 1.4134814105927933 3.561935953795909 2.1958122849464417 1.5516067221760748 1.3649413175880911 1.2928351350128648 1.9455379545688627
leaf_count=31 33 29 32 12 28 27 19 35 22 21 20 22 36
internal_value=0 -0.0203602 0.0315136 -0.0342777 -0.0404398 -0.04618 -0.0521562 -0.0554438 -0.0544801 -0.053778 -0.0535165 -0.0538685 -0.0532571
internal_weight=0 26.9821 13.434 21.5695 19.9565 17.5098 14.9857 13.5722 10.0102 7.81442 6.26281 2.65778 3.60504
internal_count=367 302 65 271 259 230 203 184 149 127 106 42 64
is_linear=0
shrinkage=0.05


Tree=26
num_leaves=17
num_cat=0
split_feature=44 14 37 20 34 8 0 15 27 31 9 18 13 0 1 34
split_gain=8.7222 8.68827 5.33895 4.42664 3.34672 1.59919 1.14571 1.11282 0.074049 0.00587072 0.00255208 0.000940346 0.000714201 0.000138099 5.89179e-05 2.23614e-05
threshold=0.070152617500000014 0.50868750000000007 1.4471000000000001 114.98874750000002 8028.9240215000009 210.48966450000003 0.81400650000000019 48.324589500000009 0.48976200000000009 76.971534000000005 128.29885500000003 237.68273750000003 7.7028530000000011 0.40807150000000009 3588.8055500000005 7953.9929045000008
decision_type=2 2 2 2 2 2 2 2 2 2 2 2 2 2 2 2
left_child=5 -2 6 -4 -5 -1 7 8 9 10 11 12 -3 14 15 -13
right_child=1 2 3 4 -6 -7 -8 -9 -10 -11 -12 13 -14 -15 -16 -17
leaf_value=0.017439222180812227 0.035549756179899382 -0.055156510018753685 -0.046744990145431389 0.054116672469231811 -0.02418324135713221 0.061359171361222875 -0.0090203384702086543 -0.0091787774644193319 -0.065040294758355474 -0.057596909654451793 -0.055915022543122667 -0.052794545349482871 -0.053540577896990516 -0.053729765331434434 -0.053367941252111778 -0.053111462225345796
leaf_weight=3.6838781051337701 6.6560460962355164 1.5039125569164773 3.1165203601121885 3.8990612998604774 2.0995613150298595 4.738640271127224 1.7978299111127842 1.398957636207341 1.9965281262993801 1.3557995595037926 1.5516295805573461 1.147093582898379 1.2538661435246465 1.180327672511339 1.3392960280179975 1.0812771096825597
leaf_count=25 39 20 32 29 21 22 14 14 12 15 18 23 21 19 23 20
internal_value=0 -0.0151559 -0.0288079 0.00159606 0.0267111 0.0421493 -0.0465657 -0.0514539 -0.0562196 -0.0545284 -0.0540691 -0.0536875 -0.0544218 -0.053261 -0.0531058 -0.0529483
internal_weight=0 31.3777 24.7217 9.11514 5.99862 8.42252 15.6065 13.8087 12.4097 10.4132 9.0574 7.50577 2.75778 4.74799 3.56767 2.22837
internal_count=367 320 281 82 50 47 199 185 171 159 144 126 41 85 66 43
is_linear=0
shrinkage=0.05


Tree=27
num_leaves=14
num_cat=0
split_feature=22 18 25 35 23 9 42 20 0 5 35 0 34
split_gain=8.4612 7.27105 9.97935 5.86884 3.56298 6.83166 2.61667 0.065315 0.0073083 0.00327861 0.000724929 0.000511796 0.000119916
threshold=1.6725225000000001 156.40692750000002 1.4410825000000003 10.276232000000002 20.788976000000002 135.87810250000004 25.010701500000003 218.07633000000001 0.41554925000000004 5.0566460000000006 9.5636767500000008 0.39952550000000003 7000.8491835000013
decision_type=2 2 2 2 2 2 2 2 2 2 2 2 2
left_child=1 2 -1 -2 7 6 -6 8 10 11 -3 12 -8
right_child=3 4 -4 -5 5 -7 9 -9 -10 -11 -12 -13 -14
leaf_value=0.087430727836402447 0.061523676474521984 -0.054577779559610823 -0.042068518099135366 -0.00511482658603083 0.012691973793173706 0.051521994721036773 -0.052863963805516216 -0.066752474427371533 -0.057139947534383541 -0.056367416851211764 -0.053320952727618144 -0.05426248470257411 -0.053575467012893729
leaf_weight=3.2822529412806061 6.8947992175817472 2.4104453735053557 2.7209286764264107 6.3441519886255264 1.9085564687848071 2.867865450680255 1.2514930777251723 1.46789139136672 3.0369865521788597 1.5550024025142191 2.1894528120756149 2.1726115196943283 1.1241132020950315
leaf_count=17 33 36 36 32 20 17 25 11 32 18 39 32 19
internal_value=0 -0.0195193 0.0287355 0.0295903 -0.0340147 -0.0147013 -0.0384064 -0.057093 -0.0552364 -0.0543855 -0.0539796 -0.0537079 -0.0532006
internal_weight=0 25.9876 6.00318 13.239 19.9844 10.8796 8.01178 9.10478 7.63688 6.10322 4.5999 4.54822 2.37561
internal_count=367 302 53 65 249 131 114 118 107 94 75 76 44
is_linear=0
shrinkage=0.05


Tree=28
num_leaves=15
num_cat=0
split_feature=22 18 25 35 23 9 42 20 0 5 8 0 0 34
split_gain=7.76629 6.76117 9.06369 5.34977 3.45558 6.25451 2.52894 0.056448 0.00622171 0.0028015 0.00067975 0.00043686 0.000388142 0.000102547
threshold=1.6725225000000001 156.40692750000002 1.4410825000000003 10.276232000000002 20.788976000000002 135.87810250000004 25.010701500000003 218.07633000000001 0.41554925000000004 5.0566460000000006 201.83998500000004 0.39952550000000003 0.27454025000000004 7000.8491835000013
decision_type=2 2 2 2 2 2 2 2 2 2 2 2 2 2
left_child=1 2 -1 -2 7 6 -6 8 10 11 12 13 -3 -8
right_child=3 4 -4 -5 5 -7 9 -9 -10 -11 -12 -13 -14 -15
leaf_value=0.083293504213842628 0.058888604714109449 -0.052947964548813613 -0.041252788507688147 -0.0048643576654825039 0.011962743282338578 0.048200205244836758 -0.052716975050730856 -0.065876006061173623 -0.056756380631279704 -0.056029759399810579 -0.054829793035962117 -0.054039909319417247 -0.054055235366175826 -0.053390559561552448
leaf_weight=3.273221097886565 6.8444337695837003 1.9052104838192483 2.6381154656410217 6.3374517858028412 1.9232644587755183 2.9110740572214127 1.1936924867331984 1.4144069030880926 2.9078997038304806 1.4878523685038088 1.1327365115284918 2.074948713183403 1.3538611344993112 1.0728992037475107
leaf_count=17 33 37 36 32 20 17 25 11 32 18 17 32 21 19
internal_value=0 -0.0190975 0.0277109 0.0282381 -0.0333767 -0.0142898 -0.0377544 -0.0567339 -0.0549625 -0.0541574 -0.0537747 -0.0535157 -0.0534079 -0.0530358
internal_weight=0 25.2892 5.91134 13.1819 19.3778 10.6637 7.75266 8.71411 7.29971 5.82939 4.39181 4.34154 3.25907 2.26659
internal_count=367 302 53 65 249 131 114 118 107 94 75 76 58 44
is_linear=0
shrinkage=0.05


Tree=29
num_leaves=16
num_cat=0
split_feature=44 14 37 20 18 8 0 15 22 9 14 13 9 34 38
split_gain=7.22501 7.3703 4.98974 3.92887 3.00923 1.33746 1.13236 1.05711 0.0754684 0.0074731 0.00217275 0.000407119 0.00021434 5.63232e-05 6.37154e-05
threshold=0.070152617500000014 0.50868750000000007 1.4471000000000001 114.98874750000002 357.95993750000008 210.48966450000003 0.81400650000000019 48.324589500000009 2.7484545000000002 153.25215000000003 0.63840000000000008 4.3243020000000012 97.358170942549393 6365.6452400000007 0.33526350000000005
decision_type=2 2 2 2 2 2 2 2 2 2 2 2 2 2 2
left_child=5 -2 6 -4 -5 -1 7 8 9 10 -3 -12 13 -13 -15
right_child=1 2 3 4 -6 -7 -8 -9 -10 -11 11 12 -14 14 -16
leaf_value=0.015728967383023356 0.032675669885832315 -0.05502799746716959 -0.045386236939165436 -0.013763167659302439 0.058399661012456916 0.056551639676120175 -0.0077183125753306249 -0.0086185226503118391 -0.066407966629002974 -0.057289250724773123 -0.053908746059119508 -0.052466646669142171 -0.053547259629292514 -0.053129768583207143 -0.052589468291637499
leaf_weight=3.5473680533468706 6.5081919878721264 2.1443460062146205 2.8966089040040952 2.6318443790078163 3.202689316123724 4.6188022270798683 1.7227841243147839 1.3209774009883393 1.4823341220617283 1.7256191745400418 1.4205924123525617 1.1980029642581942 1.0933574736118314 1.2410557605326178 0.97379259392619122
leaf_count=25 39 31 32 28 22 22 14 14 8 18 24 27 19 23 21
internal_value=0 -0.0143123 -0.0275772 0.00221589 0.0258484 0.0388184 -0.0457389 -0.0509373 -0.0558936 -0.0543027 -0.0536641 -0.0531707 -0.052938 -0.0527428 -0.0528922
internal_weight=0 29.5622 23.054 8.73114 5.83453 8.16617 14.3229 12.6001 11.2791 9.79677 8.07115 5.9268 4.50621 3.41285 2.21485
internal_count=367 320 281 82 50 47 199 185 171 163 145 114 90 71 44
is_linear=0
shrinkage=0.05


Tree=30
num_leaves=16
num_cat=0
split_feature=37 14 0 22 27 36 30 42 0 9 12 0 7 40 24
split_gain=8.02692 6.86696 7.70215 7.44112 4.5801 3.75631 0.697193 0.454346 0.0123244 0.00703427 0.00510153 0.000489573 0.0002792 0.000136005 4.74601e-05
threshold=2.7001900000000005 0.6738375000000002 0.45507450000000005 2.2829070000000002 0.033462000000000006 7.0177098310000003 150.54246350000003 36.289052500000004 0.81400650000000019 120.75738000000001 81.797140000000013 0.46362050000000005 17.478450000000006 211.64165925000003 7.354254000000001
decision_type=2 2 2 2 2 2 2 2 2 2 2 2 2 2 2
left_child=1 2 5 6 -4 7 8 10 9 11 -1 12 -3 14 -14
right_child=-2 3 4 -5 -6 -7 -8 -9 -10 -11 -12 -13 13 -15 -16
leaf_value=-0.055062508143361034 0.081222166062493981 -0.053711077717986666 0.071637538493604033 0.015847531195250685 0.0069758875446731929 0.032419954140879177 -0.015065130103479854 -0.022479448795555686 -0.059303112989883666 -0.05605048519866225 -0.058765424815807377 -0.053924470551474084 -0.052431507435624775 -0.053314161923190689 -0.052816803653373615
leaf_weight=2.4961780570447476 2.7027353644371024 1.0393840670585648 5.6614441499114019 6.2079592049121848 5.3043972663581371 1.9992260076105592 1.2286340221762646 1.3086028285324571 1.2825344987213601 3.1986945532262325 1.4826150164008138 1.847801376134157 1.4846549443900587 0.97087034210562695 1.7312220074236391
leaf_count=37 13 18 31 28 34 13 17 17 12 38 16 31 34 18 35
internal_value=0 -0.00801693 0.0138831 -0.0290645 0.0403594 -0.0259618 -0.0508742 -0.0480367 -0.0546817 -0.0541048 -0.0564423 -0.0532249 -0.0529776 -0.0527955 -0.0526389
internal_weight=0 37.2442 18.2525 18.9918 10.9658 7.28662 12.7838 5.2874 11.5552 10.2726 3.97879 7.07393 5.22613 4.18675 3.21588
internal_count=392 379 148 231 65 83 203 70 186 174 53 136 105 87 69
is_linear=0
shrinkage=0.05


Tree=31
num_leaves=16
num_cat=0
split_feature=37 14 22 0 36 27 7 0 9 12 14 4 18 34 15
split_gain=7.32592 6.36403 7.08162 7.0235 4.885 4.76879 0.763284 0.0140931 0.00702628 0.00467949 0.00159514 0.000514443 0.000179214 0.000231272 3.66628e-05
threshold=2.7001900000000005 0.6738375000000002 2.2829070000000002 0.40807150000000009 7.0177098310000003 0.033462000000000006 16.772250000000003 0.83537150000000004 120.75738000000001 81.797140000000013 0.56778750000000011 7.0739115000000004 314.48585000000008 6162.782126000001 34.344334750000009
decision_type=2 2 2 2 2 2 2 2 2 2 2 2 2 2 2
left_child=1 3 6 4 9 -5 -3 8 11 10 -1 12 13 -8 -14
right_child=-2 2 -4 5 -6 -7 7 -9 -10 -11 -12 -13 14 -15 -16
leaf_value=-0.055698649510889514 0.077878992776125311 -0.012624747754676327 0.015027272579983998 0.067294527893482822 0.04153722682898086 0.0032393350470222614 -0.053607050080237244 -0.05941961907152489 -0.055905349204356171 -0.057790195346976464 -0.053368502286252978 -0.054016602269186857 -0.052365579999466463 -0.052690144362780481 -0.052729066161866546
leaf_weight=1.4207938686013251 2.6784291118383399 1.2009114958345914 6.2191792428493491 6.039602190256117 1.7898458465933798 5.5995363928377628 1.2643212378025039 1.332020416855811 3.0885240212082863 1.6987209096550939 1.5204566009342668 1.0798876471817491 1.4446069896221163 1.5079855509102342 1.3346612788736818
leaf_count=18 13 20 28 33 11 37 22 12 37 20 29 18 34 32 28
internal_value=0 -0.00778956 -0.0284269 0.0133082 -0.028633 0.0364779 -0.0504828 -0.0545965 -0.0539355 -0.0557008 -0.0544941 -0.0530181 -0.0528239 -0.0531083 -0.0525401
internal_weight=0 36.5411 18.4721 18.069 6.42982 11.6391 12.2529 11.052 9.71999 4.63997 2.94125 6.63146 5.55158 2.77231 2.77927
internal_count=392 379 231 148 78 70 203 183 171 67 47 134 116 54 62
is_linear=0
shrinkage=0.05


Tree=32
num_leaves=20
num_cat=0
split_feature=37 34 35 22 7 18 14 43 22 35 22 20 0 9 43 22 0 37 35
split_gain=6.69685 5.91701 5.28549 5.22698 5.63529 5.8103 3.01144 1.24585 2.08552 0.553378 0.213971 0.00904747 0.00326981 0.00322156 0.00237161 0.00121708 0.000826891 0.000503028 0.000172999
threshold=2.7001900000000005 27038.398930000007 10.325849000000002 2.2829070000000002 17.831550000000004 172.19996250000003 0.48483750000000009 56.600718000000008 2.2829070000000002 9.8324355000000008 2.9553645000000004 167.95476750000003 0.60035650000000007 107.54351750000002 56.162192000000012 0.42416550000000003 0.33543050000000002 1.4859600000000002 8.685731500000001
decision_type=2 2 2 2 2 2 2 2 2 2 2 2 2 2 2 2 2 2 2
left_child=1 2 3 4 -1 -6 -4 10 15 11 13 12 14 16 17 -9 -8 18 -7
right_child=-2 -3 6 -5 5 9 7 8 -10 -11 -12 -13 -14 -15 -16 -17 -18 -19 -20
leaf_value=0.055089117301109471 0.074799552890225607 0.063117875573707585 0.018620454099814207 0.047803016328481857 0.02952756103462427 -0.053440273334921053 -0.052477165442806464 -0.053575695182190276 0.0080946479078412154 -0.019265685361195078 -0.073519220002583541 -0.059574572472220325 -0.057183581425744215 -0.056296285504976666 -0.056135309487860566 -0.055585394835583474 -0.054077946873259543 -0.054404656490668925 -0.052528776381687237
leaf_weight=2.5580255612731007 2.649982437491416 2.7345100641250601 2.1303576380014411 5.0080085545778266 3.2185433730483037 1.2445868179202086 1.400611918419598 1.9579764939844611 2.3060731291770935 1.2323820255696771 2.0833894461393356 1.2347413040697572 1.170319754630327 1.3524629138410089 1.1636904403567312 1.2244787551462648 1.9025499075651167 1.0283482670783994 0.89483714103698719
leaf_count=23 13 17 12 24 29 23 32 36 11 22 10 12 13 16 16 15 33 15 20
internal_value=0 -0.00757086 -0.0134087 0.00407078 -0.0118626 -0.0271712 -0.0362394 -0.0457974 -0.0281125 -0.0500711 -0.0602008 -0.0557066 -0.0548386 -0.0542408 -0.054205 -0.0543489 -0.0533992 -0.0534959 -0.053059
internal_weight=0 35.8459 33.1114 18.7535 13.7455 11.1874 14.3579 12.2275 5.48853 7.96891 6.73901 6.73652 5.50178 4.65562 4.33146 3.18246 3.30316 3.16777 2.13942
internal_count=392 379 362 197 173 150 165 153 62 121 91 99 87 81 74 51 65 58 43
is_linear=0
shrinkage=0.05


Tree=33
num_leaves=18
num_cat=0
split_feature=14 0 15 37 36 36 24 44 9 27 0 12 14 9 18 37 24
split_gain=6.23326 6.70415 5.22054 4.53069 4.40645 3.2321 2.81183 2.35995 1.62258 0.0332784 0.00487997 0.00397577 0.00113007 0.000787778 0.000359681 2.80878e-05 1.56153e-05
threshold=0.69380625000000007 0.37816050000000007 36.404280000000007 1.6244350000000003 7.0177098310000003 6.3669864925000006 6.4954920000000014 0.11006423350000001 145.64685250000002 0.44413200000000003 0.59181050000000013 81.797140000000013 0.57121875000000011 120.75738000000001 226.56862750000002 0.74283500000000013 7.651110000000001
decision_type=2 2 2 2 2 2 2 2 2 2 2 2 2 2 2 2 2
left_child=1 4 6 7 11 -5 -3 -2 -4 10 13 12 -1 14 -9 -16 -17
right_child=3 2 8 5 -6 -7 -8 9 -10 -11 -12 -13 -14 -15 15 16 -18
leaf_value=-0.055258787904561395 -0.009922098853384978 0.0046132647023033385 -0.03161752805526178 -0.022045079154332344 0.038781602370759928 0.063804098648832727 0.071832780171178653 -0.053285765595868451 0.023871807949350808 -0.062871374176625569 -0.056085694998638559 -0.057393598911626681 -0.053208827084005622 -0.054020714552973505 -0.052112067748288776 -0.052284743915819346 -0.052582974625152767
leaf_weight=1.3200312964618235 4.4939782135188606 1.9753566943109016 2.7177186496555796 2.2515944726765147 1.7574892863631246 2.1368374489247799 7.3237840421497822 1.3725252933800201 2.556886300444603 1.1304039172828195 1.5902279689908025 1.5505638383328912 1.3700382448732851 1.3075948618352411 1.1528207771480086 0.90317729115486123 0.85388674959540367
leaf_count=18 32 14 28 30 11 13 39 27 12 9 20 19 28 21 30 22 19
internal_value=0 0.0167041 0.0350157 -0.0240864 -0.027788 0.019757 0.0575538 -0.0391125 -0.00471885 -0.0548972 -0.0536418 -0.0553771 -0.0542148 -0.0529465 -0.0526186 -0.0523038 -0.0524297
internal_weight=0 20.5719 14.5737 17.193 5.99812 4.38843 9.29914 12.8046 5.2746 8.31064 7.18023 4.24063 2.69007 5.59 4.28241 2.90988 1.75706
internal_count=392 169 93 223 76 43 53 180 40 148 139 65 46 119 98 71 41
is_linear=0
shrinkage=0.05


Tree=34
num_leaves=19
num_cat=0
split_feature=37 34 37 19 21 23 9 33 36 43 27 14 0 21 7 13 27 14
split_gain=5.86168 5.28078 4.79101 6.67577 4.3305 5.12877 5.55985 1.9354 1.68634 0.522393 0.11777 0.0109322 0.0023678 0.000925508 0.000292183 0.000172097 8.71972e-05 5.20841e-05
threshold=2.7001900000000005 27038.398930000007 1.4369500000000002 0.47244600000000009 21.079336000000001 16.220612000000003 151.33356750000004 14.349729000000002 7.9106051675000009 102.14183600000001 0.44413200000000003 0.54641250000000008 0.59181050000000013 37.479114000000003 19.243950000000002 8.920773500000001 0.17947800000000003 0.70290000000000019
decision_type=2 2 2 2 2 2 2 2 2 2 2 2 2 2 2 2 2 2
left_child=1 2 3 7 -4 -6 8 9 -7 10 11 -1 13 14 15 -13 17 -16
right_child=-2 -3 4 -5 5 6 -8 -9 -10 -11 -12 12 -14 -15 16 -17 -18 -19
leaf_value=-0.057894875028347684 0.070757031013887958 0.059961599677809285 0.053687370266176551 0.022414116014360337 -0.06518509114463221 -0.055488969905580415 0.069438327827668012 0.0076497524956271636 0.012610570031260879 -0.022457194422302349 -0.06771528615213912 -0.053594811311016982 -0.055207510673250096 -0.05443321722633087 -0.052538375392031204 -0.052666264822658973 -0.052859164983611845 -0.052071784332928223
leaf_weight=1.6216231845319322 2.5874092802405348 2.6924241818487635 3.9753696098923674 4.6672263108193865 2.8019913993775827 1.997264873236418 2.7625976651906967 1.4659774303436268 1.6684883050620554 1.2518621012568463 1.940048076212405 1.101316671818495 1.4314859509468076 0.90084664151072491 1.0095906816422946 0.91242621093988407 0.8114434927701949 1.4674233626574276
leaf_count=18 13 17 31 39 29 30 14 8 11 16 12 20 20 15 23 20 17 39
internal_value=0 -0.00727291 -0.0129678 -0.0293323 0.010058 -0.00873245 0.0158741 -0.0466897 -0.0244931 -0.0530892 -0.0565142 -0.0541665 -0.0533745 -0.0529515 -0.0526998 -0.0531741 -0.0524093 -0.052262
internal_weight=0 34.4794 31.787 18.5813 13.2057 9.23034 6.42835 13.914 3.66575 12.4481 11.1962 9.25616 7.63453 6.20305 5.3022 2.01374 3.28846 2.47701
internal_count=392 379 362 247 115 84 55 208 41 200 184 172 154 134 119 40 79 62
is_linear=0
shrinkage=0.05


Tree=35
num_leaves=19
num_cat=0
split_feature=22 14 0 15 30 16 29 24 30 0 14 9 33 8 9 26 13 18
split_gain=8.17492 6.70584 5.85278 6.28459 3.85455 2.62298 1.71737 0.84517 0.741365 0.0173835 0.00375516 0.00272309 0.00116156 0.000492799 0.000187114 8.08183e-05 4.93529e-05 4.17617e-05
threshold=1.6725225000000001 0.74291250000000009 0.36534150000000004 36.404280000000007 89.82124450000002 20.714904000000004 101.67793350000001 8.3614440000000023 134.66466650000004 0.83537150000000004 0.5809875000000001 159.84931250000002 3.2623815000000005 257.17801050000008 105.54939000000002 946.31060000000014 14.058543000000002 256.93285500000007
decision_type=2 2 2 2 2 2 2 2 2 2 2 2 2 2 2 2 2 2
left_child=1 2 8 6 7 -5 -4 -2 10 11 -1 13 -12 14 15 -3 17 -17
right_child=4 9 3 5 -6 -7 -8 -9 -10 -11 12 -13 -14 -15 -16 16 -18 -19
leaf_value=-0.056658390971821772 0.035597674724914506 -0.05283242453793794 0.026743201446490696 0.019733754373519149 -0.0013546637232081794 -0.059079772474145587 0.079041880232127104 0.068089154716831773 -0.0069686092980222828 -0.05954091922745175 -0.052409243557472888 -0.055565990860693838 -0.054696231092965814 -0.05386541886168298 -0.053228001481695777 -0.05241058250653699 -0.052598161155102088 -0.051948695521806268
leaf_weight=1.3627100624144106 3.5848003700375539 0.91945819929242079 2.9312755875289422 1.9113345034420488 5.214705415070056 2.3581600748002529 3.3794466778635979 4.5314101278781891 1.052929103374481 1.2995621040463445 1.3566088527441027 1.0398914292454717 0.93984671309590329 0.88019757531583298 0.89306650310754765 0.88145851343870196 0.91470256075263012 1.1002102028578518
leaf_count=15 20 20 26 14 28 30 18 21 18 12 33 13 15 16 17 21 20 31
internal_value=0 -0.016937 0.00241013 0.0230532 0.0321873 -0.0237971 0.0547496 0.0537382 -0.0439404 -0.0542532 -0.0545791 -0.0532166 -0.0533452 -0.0527795 -0.0525765 -0.052424 -0.0522944 -0.0521541
internal_weight=0 23.2209 15.2923 10.5802 13.3309 4.26949 6.31072 8.11621 4.71209 7.92855 3.65917 6.62898 2.29646 5.58909 4.7089 3.81583 2.89637 1.98167
internal_count=388 319 169 88 69 44 44 41 81 150 63 138 48 125 109 92 72 52
is_linear=0
shrinkage=0.05


Tree=36
num_leaves=17
num_cat=0
split_feature=22 14 0 25 30 41 24 14 0 9 14 9 5 0 37 34
split_gain=7.50115 6.39201 5.43124 4.12981 3.55358 1.82843 0.819933 0.792467 0.0157348 0.00209003 0.00207043 0.00147642 0.00075386 0.000247262 6.27204e-05 2.48211e-05
threshold=1.6725225000000001 0.74291250000000009 0.36534150000000004 3.2187535000000005 89.82124450000002 2345.6788785000003 8.3614440000000023 0.69637500000000008 1.0105645000000003 159.84931250000002 0.5390250000000002 89.35280250000001 4.944198000000001 0.39952550000000003 1.2499000000000002 6835.2102045000011
decision_type=2 2 2 2 2 2 2 2 2 2 2 2 2 2 2 2
left_child=1 2 7 5 6 -4 -2 10 9 12 -1 -12 13 14 15 -3
right_child=4 8 3 -5 -6 -7 -8 -9 -10 -11 11 -13 -14 -15 -16 -17
leaf_value=-0.05616850144742927 0.033927366926494375 -0.05175868668809256 0.072935630866991036 -0.02451308073209936 -0.0012871755204758428 0.021883697970748732 0.06610949945155227 -0.0045662030432234487 -0.059954885869974474 -0.055270424158935641 -0.05249478142878175 -0.055095657278943777 -0.053772440796905123 -0.053006883931834795 -0.052459192941395484 -0.052148931357172204
leaf_weight=1.3157710470259218 3.5735155045986158 0.71095072664320402 3.0163944661617261 3.2678240239620209 5.2137395888566962 4.1902496255934238 4.4361738413572311 1.020879343152046 0.97775335237383831 0.99433118477463711 1.2154544051736595 0.99014741368591774 1.4322500042617319 1.3247707765549419 1.1768671497702596 0.95451413281261921
leaf_count=16 20 22 16 39 28 33 21 22 9 13 29 14 26 27 28 25
internal_value=0 -0.0165775 0.0023089 0.0221106 0.0308394 0.0432519 0.0517515 -0.0433539 -0.0540357 -0.053158 -0.0545988 -0.0536624 -0.0527829 -0.0524427 -0.0521798 -0.0519823
internal_weight=0 22.5882 15.0167 10.4745 13.2234 7.20664 8.00969 4.54225 7.57144 6.59368 3.52137 2.2056 5.59935 4.1671 2.84233 1.66546
internal_count=388 319 169 88 69 49 41 81 150 141 59 43 128 102 75 47
is_linear=0
shrinkage=0.05


Tree=37
num_leaves=17
num_cat=0
split_feature=44 5 27 37 34 34 21 19 13 27 14 9 5 32 9 34
split_gain=6.17728 5.35179 4.03951 4.15234 5.23109 3.41805 3.3039 1.59636 0.852198 0.177982 0.00625688 0.00183628 0.000800698 0.000180799 9.36393e-05 2.18185e-05
threshold=0.066935707000000011 13.880300000000002 1.3780260000000002 1.4471000000000001 21677.023050000003 7644.7874175000006 21.565546000000001 0.47244600000000009 9.3259867500000002 0.44413200000000003 0.54641250000000008 159.84931250000002 7.1035510000000004 54.506760000000007 97.358170942549393 6835.2102045000011
decision_type=2 2 2 2 2 2 2 2 2 2 2 2 2 2 2 2
left_child=-1 2 3 4 7 6 -5 9 -7 10 -2 12 13 14 15 -12
right_child=1 -3 -4 5 -6 8 -8 -9 -10 -11 11 -13 -14 -15 -16 -17
leaf_value=0.04724949378202583 -0.05658530925293586 0.058962081444672312 0.061667187264608604 0.065362988260033283 0.033159763107122257 -0.0071654920447892408 -0.0071023076381071422 -0.011064916248860338 -0.057079432778497557 -0.068640173032416776 -0.051702615602102812 -0.054770930809875655 -0.053815828928534773 -0.052774450503873485 -0.052428508658912548 -0.052027902065309044
leaf_weight=5.9648540951311579 1.4271214623004285 2.6636579111218444 1.5982221662998188 2.9671405702829343 2.2729857284575692 1.5408066809177401 3.347440280020237 2.2679196447134009 1.9216389060020445 2.6047792583703995 1.0651977360248572 1.1237327419221399 1.0154149793088434 1.2250317074358461 1.1161009706556795 0.99894970282912243
leaf_count=38 18 13 7 23 20 19 32 29 23 16 34 16 18 27 27 28
internal_value=0 -0.00859588 -0.0153884 -0.0203354 -0.0367577 0.00505674 0.0269482 -0.0491307 -0.0348675 -0.0572933 -0.0535856 -0.0529314 -0.0525501 -0.0522583 -0.0520595 -0.05186
internal_weight=0 29.1561 26.4925 24.8943 15.1172 9.77703 6.31458 12.8442 3.46245 10.5763 7.97155 6.54443 5.4207 4.40528 3.18025 2.06415
internal_count=388 350 337 330 233 97 55 213 42 184 168 150 134 116 89 62
is_linear=0
shrinkage=0.05


Tree=38
num_leaves=18
num_cat=0
split_feature=22 14 0 15 30 16 5 14 11 0 14 9 9 5 0 37 7
split_gain=6.58023 5.96941 4.85262 5.53409 3.13199 2.36409 1.32826 0.81826 0.795679 0.0138127 0.00155728 0.00152046 0.00125576 0.000623109 0.000192917 6.44076e-05 3.22888e-05
threshold=1.6725225000000001 0.74291250000000009 0.36534150000000004 36.404280000000007 89.82124450000002 20.714904000000004 3.9251380000000005 0.70290000000000019 0.65178306000000008 1.0105645000000003 0.5390250000000002 159.84931250000002 89.35280250000001 4.944198000000001 0.39952550000000003 1.3732950000000004 19.243950000000002
decision_type=2 2 2 2 2 2 2 2 2 2 2 2 2 2 2 2 2
left_child=1 2 7 6 8 -5 -4 10 -2 11 -1 13 -12 14 15 16 -3
right_child=4 9 3 5 -6 -7 -8 -9 -10 -11 12 -13 -14 -15 -16 -17 -18
leaf_value=-0.055621686202372858 0.066591554612744283 -0.052129136823559158 0.027169437698033351 0.017450839310212934 -0.0011494799994002716 -0.058901891506022167 0.073542365353639519 -0.0018960642156126556 0.03443229103250648 -0.059449634101400251 -0.052279247496008756 -0.054795683578152211 -0.054741471279222867 -0.05351953519389966 -0.052783659440585162 -0.052417392099067067 -0.051704884311805401
leaf_weight=1.2239640560001164 3.5575227141380292 0.73299557901918877 3.0323766246438009 1.85845161229372 5.1360263787209988 2.2306438479572535 3.1463747620582581 0.96492817439138878 4.1872005760669708 0.93307781592011441 1.1614202447235586 0.9172069840133189 0.93449235521256913 1.3339047562330959 1.2290263995528219 0.74943811818957318 1.1554145310074089
leaf_count=16 20 20 27 14 28 30 17 21 21 9 30 13 14 26 27 18 37
internal_value=0 -0.0160244 0.00227038 0.0209218 0.0291266 -0.0242004 0.0507837 -0.0424248 0.0492046 -0.053783 -0.0542046 -0.0529187 -0.0533771 -0.0525877 -0.0522663 -0.0520252 -0.0518696
internal_weight=0 21.6037 14.5527 10.2678 12.8807 4.0891 6.17875 4.2848 7.74472 7.05106 3.31988 6.11799 2.09591 5.20078 3.86687 2.63785 1.88841
internal_count=388 319 169 88 69 44 44 81 41 150 60 141 44 128 102 75 57
is_linear=0
shrinkage=0.05


Tree=39
num_leaves=19
num_cat=0
split_feature=22 14 12 25 17 17 17 11 7 39 0 9 14 5 0 0 37 7
split_gain=6.04502 5.69122 4.55554 4.84321 3.00434 3.97417 2.57362 2.21761 0.616101 0.0202209 0.011814 0.0012978 0.000893659 0.000535144 0.000432431 0.000165246 5.5156e-05 2.77027e-05
threshold=1.6725225000000001 0.74291250000000009 136.77385600000005 1.6345705000000004 45.255350000000007 58.855720000000012 38.776720000000005 0.54643338000000019 18.537750000000006 30.994264000000005 1.0105645000000003 159.84931250000002 0.58560000000000012 4.944198000000001 0.37816050000000007 0.39952550000000003 1.3732950000000004 19.243950000000002
decision_type=2 2 2 2 2 2 2 2 2 2 2 2 2 2 2 2 2 2
left_child=1 2 3 6 -2 -6 -1 -5 -9 12 11 13 -10 15 -14 16 17 -3
right_child=4 10 -4 7 5 -7 -8 8 9 -11 -12 -13 14 -15 -16 -17 -18 -19
leaf_value=0.068178317485224918 0.059165167665350439 -0.052021637646647627 0.076351756188222625 0.014326147546858009 -0.02500275557373708 0.045712485044087856 -0.0061597072434453216 -0.01501394628673404 -0.054968098950221679 -0.061465375753378099 -0.058939426204810408 -0.05454395793950171 -0.05249621862599816 -0.053340617204449915 -0.053860475040689318 -0.052641819735723017 -0.052294620278779291 -0.051619093601871571
leaf_weight=2.3776408378034848 4.804234776645897 0.69865140132606018 1.8080036677420128 1.9022594243288038 4.1207597553730011 3.8366966769099236 2.2815190255641937 1.1567475050687788 1.2043490558862688 1.1526545360684393 0.8950594626367091 0.87639896944165219 0.98739860765636001 1.2729979641735552 1.4107404667884109 1.1721565220504997 0.71451896801590908 1.1008448321372268
leaf_count=16 27 20 10 17 22 20 29 17 16 15 9 13 25 26 24 27 18 37
internal_value=0 -0.0156857 0.00217852 -0.00857288 0.0279428 0.00909268 0.0317761 -0.0326308 -0.0477401 -0.0557012 -0.0535906 -0.0527702 -0.0538568 -0.0524568 -0.0532988 -0.0521515 -0.051923 -0.0517754
internal_weight=0 21.0119 14.2813 12.4733 12.7617 7.95746 4.65916 7.81415 5.91189 4.75514 6.73063 5.83557 3.60249 4.95917 2.39814 3.68617 2.51402 1.7995
internal_count=388 319 169 159 69 42 45 114 97 80 150 141 65 128 49 102 75 57
is_linear=0
shrinkage=0.05


Tree=40
num_leaves=21
num_cat=0
split_feature=22 35 29 9 21 23 20 22 1 35 9 34 1 22 22 37 12 3 14 22
split_gain=5.02691 4.8849 4.39912 5.91961 4.02921 4.12504 5.56613 3.74495 2.21133 1.97464 1.12298 0.609863 0.209927 0.117821 0.0733286 0.0388993 0.030198 0.024611 0.00116619 0.000802649
threshold=13.318107000000001 10.325849000000002 40.779024000000007 163.70341000000002 20.772256000000002 13.283967000000002 192.21360375000003 3.9657750000000003 4707.8837300000005 10.835801500000001 39.120587500000006 4210.4576555000012 3339.3906700000002 3.6105795000000005 1.4173335000000002 1.4978500000000003 91.917232000000013 9.1783110000000026 0.72446250000000012 0.80350050000000006
decision_type=2 2 2 2 2 2 2 2 2 2 2 2 2 2 2 2 2 2 2 2
left_child=1 4 13 9 10 17 7 8 11 -4 -1 -7 16 15 18 19 -13 -6 -11 -3
right_child=-2 2 3 -5 5 6 -8 -9 -10 14 -12 12 -14 -15 -16 -17 -18 -19 -20 -21
leaf_value=0.071414559550521506 0.074806951111261691 -0.052801695577277818 0.018427938984889092 0.051076872030076929 -0.053059604902758642 -0.0072330632932520933 0.06815190745818768 0.059757627351434951 0.024507567572470076 -0.0543209023889644 0.02692963754368298 -0.05456261334818216 -0.033555984523389627 -0.073853685921345849 -0.068968701036042773 -0.064814565805939181 -0.065106758257813854 -0.062731616493273398 -0.051830098184521389 -0.054744504834535905
leaf_weight=2.7616769056767252 2.2518250346183768 1.2612917516380537 1.0938880667090414 3.0443113036453724 1.4804763421416276 0.97268550284206678 3.1596142202615729 1.5586117208003996 1.6146267615258691 1.3516426701098687 2.9173355046659708 1.7545780409127476 1.1766634192317722 1.6641148030757902 1.2044588327407835 1.205038310959935 1.1077532637864349 1.1834811419248579 0.72037870064377774 0.91895975172519673
leaf_count=22 11 29 17 20 34 14 18 8 17 23 32 36 19 8 10 11 14 12 22 15
internal_value=0 -0.0024705 -0.0269646 -0.00245158 0.0130366 -0.00136547 0.0117825 -0.0099777 -0.0263805 -0.0397384 0.0485624 -0.0427753 -0.0513347 -0.0629602 -0.0591579 -0.0576052 -0.0586433 -0.0573565 -0.0534549 -0.0536206
internal_weight=0 32.1516 12.4641 7.41468 19.6875 14.0085 11.3445 8.18492 6.62631 4.37037 5.67901 5.01168 4.03899 5.0494 3.27648 3.38529 2.86233 2.66396 2.07202 2.18025
internal_count=392 381 155 92 226 172 126 108 100 72 54 83 69 63 55 55 50 46 45 44
is_linear=0
shrinkage=0.05


Tree=41
num_leaves=20
num_cat=0
split_feature=22 35 29 9 25 22 14 0 35 41 22 27 37 0 14 9 22 21 21
split_gain=4.67578 4.52163 4.17409 5.42081 3.7743 3.90922 5.52781 4.85498 1.88953 0.223628 0.0969461 0.0678134 0.0335621 0.00380057 0.000974738 0.000934164 0.000687044 0.000110108 3.34261e-05
threshold=13.318107000000001 10.325849000000002 40.779024000000007 163.70341000000002 0.82232400000000017 2.5346475000000006 0.6738375000000002 0.40807150000000009 10.835801500000001 30336.097885000006 3.6105795000000005 0.35591400000000006 1.4978500000000003 0.70290850000000005 0.72446250000000012 137.411145 0.80350050000000006 28.544792000000005 22.843340000000001
decision_type=2 2 2 2 2 2 2 2 2 2 2 2 2 2 2 2 2 2 2
left_child=1 4 10 8 -1 6 7 -6 -4 13 12 14 16 15 -10 17 -3 18 -8
right_child=-2 2 3 -5 5 -7 9 -9 11 -11 -12 -13 -14 -15 -16 -17 -18 -19 -20
leaf_value=0.078721333311415786 0.073150228086225053 -0.052659739754833693 0.017340786698019552 0.048499950358922087 -0.040359529613862681 0.0423495548784786 -0.052193986479139746 0.04745257030658475 -0.054053908307745646 -0.024348606275256642 -0.072221180446252572 -0.068640508702122793 -0.064050970948541758 -0.056376861781881782 -0.051737922970398365 -0.054099739150212017 -0.054499356028765357 -0.052681793636181876 -0.051758948395626281
leaf_weight=1.9416310545057118 2.1892702281475058 1.2029303889721621 1.1040739361196754 3.0457189045846462 2.3422337956726569 5.0360493510961524 0.99290303885936804 4.7993730567395687 1.3435114212334163 0.7777624949812888 1.6178181916475294 1.1101409569382665 1.1595864482223985 0.8711474947631358 0.68643541634082783 0.8859243094921111 0.87797415815293778 0.88746795803308476 0.79513603076338768
leaf_count=12 11 29 17 20 39 27 26 31 24 17 8 9 11 12 22 14 15 22 26
internal_value=0 -0.00241949 -0.0263235 -0.00239712 0.0126036 0.00522055 -0.00991742 0.0186528 -0.0389222 -0.0490775 -0.062225 -0.0587045 -0.0572344 -0.0534166 -0.0532707 -0.0526925 -0.0534359 -0.0522265 -0.0520005
internal_weight=0 31.4778 12.1482 7.28988 19.3296 17.388 12.3519 7.14161 4.24416 5.21034 4.85831 3.14009 3.24049 4.43258 2.02995 3.56143 2.0809 2.67551 1.78804
internal_count=392 381 155 92 226 214 187 70 72 117 63 55 55 100 46 88 44 74 52
is_linear=0
shrinkage=0.05


Tree=42
num_leaves=17
num_cat=0
split_feature=24 21 29 23 9 11 25 35 37 5 42 35 27 4 12 9
split_gain=4.30005 3.86598 5.28618 4.18516 3.96538 2.86594 2.56384 2.28798 2.19079 1.96534 0.191873 0.157195 0.0512873 0.0452099 0.00189116 0.000152383
threshold=6.4954920000000014 20.959916000000003 40.779024000000007 11.829682000000002 109.61188750000001 0.5214729600000001 2.5677470000000002 8.1675095000000013 1.5899250000000003 4.9090580000000008 39.43143700000001 9.4933860000000028 0.31941000000000003 7.7117595000000003 89.071080000000009 95.690767500000007
decision_type=2 2 2 2 2 2 2 2 2 2 2 2 2 2 2 2
left_child=7 6 8 -4 5 -5 -2 -1 11 13 12 -3 14 -7 15 -9
right_child=1 2 3 4 -6 9 -8 10 -10 -11 -12 -13 -14 -15 -16 -17
leaf_value=0.012375290945613994 0.069484414425549562 -0.04199279295175961 -0.059606743716223612 0.048294862540586486 0.054978157509424655 -0.052292240314791877 0.0095849918776444391 -0.051803356511673615 0.010728354698075317 0.022312781134247631 -0.032294028908444183 -0.062382391778204163 -0.065433697650949876 -0.066660578348047908 -0.055188939457508468 -0.052753439255996737
leaf_weight=1.9358589369803656 3.9893225096166161 1.3458091001957662 1.5287849288433797 1.6880368888378123 6.2844749204814434 1.1287828031927354 3.2351195756345987 1.041367124766112 1.6680119726806877 1.1134735960513351 0.96892940625548352 3.1762155331671238 1.2676721327006815 1.0630666241049764 0.75008577667176712 0.70964151620864857
leaf_count=20 31 23 24 14 39 31 37 34 13 15 21 39 11 11 13 16
internal_value=0 0.0115291 -0.000310541 0.0180266 0.0285503 -0.00471086 0.0426613 -0.0334246 -0.0382484 -0.031781 -0.0521388 -0.0563142 -0.0572408 -0.059261 -0.0530883 -0.0521884
internal_weight=0 26.2211 18.9967 12.8066 11.2778 4.99336 7.22444 6.67355 6.19004 3.30532 4.7377 4.52202 3.76877 2.19185 2.50109 1.75101
internal_count=392 277 209 134 110 71 68 115 75 57 95 62 74 42 63 50
is_linear=0
shrinkage=0.05


Tree=43
num_leaves=18
num_cat=0
split_feature=27 31 25 15 0 44 2 11 44 19 11 27 27 12 14 9 14
split_gain=4.01201 3.85139 3.4315 3.21044 3.92042 4.01171 3.90198 3.12055 2.88096 1.30255 0.555147 0.0657816 0.0167873 0.00134498 0.000899077 0.000281275 0.000128055
threshold=1.3780260000000002 6.5794020000000009 0.82232400000000017 43.792361250000006 0.38670650000000006 0.070152617500000014 59.745775500000008 0.66831012000000001 0.12510101400000004 0.57300750000000011 0.77979969000000005 0.60840000000000016 0.28290600000000005 60.819652000000012 0.70953750000000004 105.54939000000002 0.72600000000000009
decision_type=2 2 2 2 2 2 2 2 2 2 2 2 2 2 2 2 2
left_child=1 8 -3 4 5 -4 7 -6 -1 -5 12 13 14 -10 -7 16 -15
right_child=-2 2 3 9 6 10 -8 -9 11 -11 -12 -13 -14 15 -16 -17 -18
leaf_value=0.0041883249105381546 0.071781486606243894 0.064860136148110634 0.050562343834911462 -0.011987154465924693 0.068721180061661905 -0.054060911141817249 -0.028357063305165128 0.00059446865415552826 -0.054357277414260399 -0.068689066180863179 -0.011948188558389963 -0.067060281726464749 -0.06080320383304727 -0.052446922239571904 -0.052049084929532065 -0.053125429951303982 -0.051590969521519051
leaf_weight=3.353889914229514 1.9527106881141651 2.4207677226513651 1.450708601623776 2.2358332350850096 5.3711296636611205 1.1853082738816745 2.1718752104789019 2.4465019125491381 1.2298710662871601 1.851624298840761 0.93864141218364228 1.0665970668196676 1.0429735500365493 0.82014080509543441 1.0448794383555648 0.79313535802066315 0.9352220743894577
leaf_count=34 10 17 10 28 35 23 28 28 23 16 20 7 11 21 30 17 34
internal_value=0 -0.00215663 0.00867574 0.00178552 0.01209 -0.0211468 0.0309301 0.0474012 -0.0314349 -0.0376732 -0.0458462 -0.0560948 -0.0555671 -0.0529993 -0.0531183 -0.052344 -0.0519909
internal_weight=0 30.3591 22.1602 19.7395 15.652 5.66251 9.98951 7.81763 8.19886 4.08746 4.2118 4.84497 3.27316 3.77837 2.23019 2.5485 1.75536
internal_count=392 382 246 229 185 94 91 63 136 44 84 102 64 95 53 72 55
is_linear=0
shrinkage=0.05


Tree=44
num_leaves=18
num_cat=0
split_feature=22 12 33 44 36 2 14 43 41 20 22 14 9 0 21 44 24
split_gain=3.90675 3.79754 4.29063 3.30625 3.18729 2.73053 2.06912 1.57497 1.55047 0.214018 0.0495347 0.0463115 0.00522721 0.000400854 8.7722e-05 3.62868e-05 2.07205e-05
threshold=13.318107000000001 85.941502000000014 0.51355050000000013 0.069844484000000012 6.2402997430000005 7.2253010000000009 0.50868750000000007 43.370350000000009 1650.5146845000002 180.04324125000002 2.2829070000000002 0.67732500000000007 140.78983000000002 0.45507450000000005 22.843340000000001 6.8310000000000004 7.4355360000000008
decision_type=2 2 2 2 2 2 2 2 2 2 2 2 2 2 2 2 2
left_child=1 3 7 -1 8 -5 -7 -3 -4 10 12 -10 13 14 15 -8 -16
right_child=-2 2 4 5 -6 6 9 -9 11 -11 -12 -13 -14 -15 16 -17 -18
leaf_value=0.035220667362257596 0.069355860229923336 0.082107376595928927 0.0066380384341426599 0.03175732095330068 0.019541037762021568 -0.00022792275102876205 -0.052316721235409515 0.027937737459799133 -0.06576430239845224 -0.02878726286407195 -0.063385516100462391 -0.05297063452099874 -0.05541293612120092 -0.052855409447661289 -0.051351330695711163 -0.051812384535113526 -0.051735932717491578
leaf_weight=2.2210553195327583 2.0287086665630332 2.2649949472397557 1.3158135153353194 1.5104606058448542 5.6185115426778793 2.4902681559324256 0.69664203561842286 3.2922507356852293 1.3432544097304346 0.86276211775839318 1.4529251456260679 1.4942064378410576 1.679362842813134 1.2393588460981844 0.86654361337423302 0.73079030215740204 0.58771682903170586
leaf_count=20 11 17 17 16 35 21 18 35 12 16 9 36 24 28 35 23 19
internal_value=0 -0.00236268 0.0149383 -0.0208596 -0.00501047 -0.0311393 -0.0400965 0.0500159 -0.0382235 -0.0523294 -0.0551296 -0.0590272 -0.0530616 -0.0521035 -0.0517801 -0.0520585 -0.0515068
internal_weight=0 29.6669 15.329 14.3379 9.77179 12.1168 10.6064 5.55725 4.15327 8.1161 7.25334 2.83746 5.80041 4.12105 2.88169 1.42743 1.45426
internal_count=392 381 152 229 100 209 193 52 65 172 156 48 147 123 95 41 54
is_linear=0
shrinkage=0.05


Tree=45
num_leaves=18
num_cat=0
split_feature=5 36 20 37 14 34 26 0 17 22 14 9 0 14 40 5 34
split_gain=4.9727 4.83271 3.52484 2.76654 2.7847 2.96396 2.33341 1.38493 1.37103 0.0934376 0.00578841 0.00109501 0.000418098 0.00020555 4.0424e-05 1.60696e-05 1.14036e-05
threshold=13.880300000000002 8.4424926030000034 269.29068375000003 1.4369500000000002 0.76575000000000004 7644.7874175000006 1599.6932315000001 0.9592885000000001 27.195890000000002 2.7484545000000002 0.53013750000000015 140.78983000000002 0.49780450000000004 0.63840000000000008 109.03916625000001 3.5315700000000003 7351.8752095000009
decision_type=2 2 2 2 2 2 2 2 2 2 2 2 2 2 2 2 2
left_child=1 2 3 7 5 -5 -3 8 -1 10 -10 12 13 -12 15 16 -15
right_child=-2 6 -4 4 -6 -7 -8 -9 9 -11 11 -13 -14 14 -16 -17 -18
leaf_value=-0.0028069205004914045 0.068142098303561799 0.053730475326235198 0.046870826746966604 0.04989659636539967 -0.05504680457498165 -0.026774835057155583 -0.0022638296494830647 0.014454340912446156 -0.056076052458952322 -0.069032311619841177 -0.052424299224066898 -0.053713720459676664 -0.052925182561427302 -0.05116989756646511 -0.051892187990047689 -0.051646108172448815 -0.051478903322686155
leaf_weight=1.4748156517744195 2.4933115616440764 4.1191444881260386 1.8531146645545948 2.9884253311902276 1.7740012593567369 2.1800372842699289 3.3932310454547405 1.0036494061350811 1.3343336023390273 1.0547039806842802 0.96608619019389186 1.2951862812042234 1.0868583638221023 0.55037855543196224 0.69812096841633309 0.64978898130357254 0.65258965641260147
leaf_count=16 14 28 10 29 34 24 23 9 16 6 26 24 25 25 23 22 24
internal_value=0 -0.00564956 -0.0187404 -0.0256061 -0.000995466 0.0175569 0.0284387 -0.0414755 -0.0472253 -0.0551293 -0.0531021 -0.0524294 -0.0520681 -0.0518032 -0.0515679 -0.0514458 -0.0513375
internal_weight=0 27.0745 19.5621 17.709 6.94246 5.16846 7.51238 10.7665 9.76286 8.28805 7.23334 5.89901 4.60382 3.51696 2.55088 1.85276 1.20297
internal_count=378 364 313 303 87 53 51 216 207 191 185 169 145 120 94 71 49
is_linear=0
shrinkage=0.05


Tree=46
num_leaves=19
num_cat=0
split_feature=5 36 20 37 14 34 26 0 25 16 22 14 22 0 33 7 14 6
split_gain=4.61747 4.44433 3.26182 2.62617 2.60756 2.65649 2.15539 1.32701 1.49683 0.242517 0.0737189 0.0112673 0.00126482 0.00064523 0.000212792 6.39267e-05 2.80731e-05 1.27709e-05
threshold=13.880300000000002 8.4424926030000034 269.29068375000003 1.4369500000000002 0.76575000000000004 7644.7874175000006 1599.6932315000001 0.9592885000000001 0.8848045000000001 41.597616000000009 2.7484545000000002 0.53013750000000015 1.4173335000000002 0.36534150000000004 1.5139350000000003 18.184650000000001 0.74291250000000009 5072.9908250000008
decision_type=2 2 2 2 2 2 2 2 2 2 2 2 2 2 2 2 2 2
left_child=1 2 3 7 5 -5 -3 8 -1 10 11 -10 13 15 -15 -13 -17 -18
right_child=-2 6 -4 4 -6 -7 -8 -9 9 -11 -12 12 -14 14 -16 16 17 -19
leaf_value=0.020453833530064223 0.066558816429697243 0.051854101000390646 0.045462037120878832 0.046939986868750214 -0.054800906548370977 -0.025764142376103045 -0.0021508348445148104 0.013648478491886031 -0.057561482701225845 -0.026850514377827678 -0.067869477941201392 -0.052013799686689489 -0.054421462134915249 -0.053356465631924734 -0.052343301065384651 -0.051675235804647328 -0.051457828183639892 -0.051095483050491622
leaf_weight=0.76294612698258291 2.4266905635595313 4.0564108323305836 1.8159677833318699 3.0170617736876002 1.6948628127574918 2.1529843062162399 3.3929298836737871 1.0096058249473561 1.3392499759793262 0.82625036127865303 1.0200158879160879 0.77533041872084174 0.70309571363031853 0.95482548698782954 1.1334351543337104 0.90260974131524541 0.52021767385303974 0.45661790296435356
leaf_count=12 14 28 10 29 34 24 23 9 14 18 6 23 11 19 31 31 20 22
internal_value=0 -0.00549676 -0.0182812 -0.0249842 -0.000980198 0.0166635 0.0272566 -0.0408225 -0.0466764 -0.05261 -0.0553367 -0.0534528 -0.0524424 -0.052149 -0.0528066 -0.0516318 -0.0514742 -0.0512885
internal_weight=0 26.5344 19.0851 17.2691 6.86491 5.17005 7.44934 10.4042 9.39459 8.63165 7.8054 6.78538 5.44613 4.74304 2.08826 2.65478 1.87945 0.976836
internal_count=378 364 313 303 87 53 51 216 207 195 177 171 157 146 50 96 73 42
is_linear=0
shrinkage=0.05


Tree=47
num_leaves=17
num_cat=0
split_feature=5 22 27 9 17 30 10 14 14 9 37 14 9 21 30 23
split_gain=4.28978 4.10362 4.66034 4.38183 3.34063 2.40553 0.721744 0.0408761 0.00299264 0.001447 0.000310339 0.00025398 0.000192818 8.13807e-05 8.1358e-05 3.26886e-05
threshold=13.880300000000002 1.6725225000000001 0.033462000000000006 172.99349125000001 37.830000000000005 80.301981500000011 1439.0616370000002 0.48483750000000009 0.62145000000000017 168.60471750000002 1.4169400000000001 0.66453750000000011 134.80614500000004 22.445842000000003 85.272482750000009 24.140008000000005
decision_type=2 2 2 2 2 2 2 2 2 2 2 2 2 2 2 2
left_child=1 2 3 4 -1 -3 8 -4 -6 11 13 -9 14 -10 15 -13
right_child=-2 5 7 -5 6 -7 -8 9 10 -11 -12 12 -14 -15 -16 -17
leaf_value=0.024281007403479146 0.065047550900965923 0.038132358228168677 -0.064072327424273226 0.064741080479679428 -0.054950908876968109 -0.0126371114879379 -0.00033685304876354623 -0.052812112868280074 -0.052040637213055609 -0.05410743189150511 -0.052823374107729186 -0.051770436236722228 -0.052716520623739743 -0.05127263259347168 -0.051379799452957876 -0.052265813861773286
leaf_weight=2.957984916865831 2.3606039658188811 6.402819771319626 0.91577303782105346 2.0990264192223549 1.4938992466777565 3.6707999147474766 0.78002543188631523 1.1975782476365564 0.61106183752417587 1.3048807475715873 0.83755968883633602 0.77440596185624666 0.63981399126350869 0.79200062714517117 0.94731749407947052 0.58426323346793652
leaf_count=30 14 39 9 13 23 24 11 27 19 22 19 26 14 34 38 16
internal_value=0 -0.00534727 -0.0211379 0.000910143 -0.0170199 0.0196321 -0.0440807 -0.0542983 -0.0532175 -0.0526554 -0.0520618 -0.0521982 -0.0519486 -0.0516071 -0.0517355 -0.0519835
internal_weight=0 26.0092 15.9356 9.57156 7.47253 10.0736 4.51455 6.36403 3.73452 5.44826 2.24062 4.14338 2.9458 1.40306 2.30599 1.35867
internal_count=378 364 301 149 136 63 106 152 95 143 72 121 94 53 80 42
is_linear=0
shrinkage=0.05


Tree=48
num_leaves=19
num_cat=0
split_feature=5 36 20 37 14 34 26 0 25 16 22 14 22 0 15 9 14 6
split_gain=3.9875 3.92088 2.90553 2.47846 2.39438 2.36456 1.98581 1.23169 1.49465 0.241626 0.0644925 0.00886383 0.00327352 0.000516996 0.000246135 9.98925e-05 2.86033e-05 4.84685e-06
threshold=13.880300000000002 8.4424926030000034 269.29068375000003 1.4369500000000002 0.76575000000000004 7644.7874175000006 1599.6932315000001 0.9592885000000001 0.82232400000000017 41.597616000000009 2.8726005000000003 0.53013750000000015 1.5932070000000003 0.36534150000000004 39.29238775000001 120.75738000000001 0.72600000000000009 5072.9908250000008
decision_type=2 2 2 2 2 2 2 2 2 2 2 2 2 2 2 2 2 2
left_child=1 2 3 7 5 -5 -3 8 -1 10 11 -10 13 15 -15 16 -13 -18
right_child=-2 6 -4 4 -6 -7 -8 -9 9 -11 -12 12 -14 14 -16 -17 17 -19
leaf_value=0.023703001143458736 0.063597887493863761 0.049797043138904734 0.043747487000495168 0.044653334260140523 -0.054527455714550234 -0.024861237010638731 -0.0025168521240479264 0.012417295083165525 -0.057168810774142986 -0.026263660775576542 -0.068034525999800408 -0.051550116855984721 -0.055714295825349605 -0.052972374515216983 -0.051817786122056099 -0.052048127213789978 -0.051252097768014149 -0.051040609722596213
leaf_weight=0.70471421070398221 2.2953576222062102 3.943129612132906 1.7419404536485661 2.9866403080523005 1.5685252901166675 2.0719970762729645 3.3595943488180637 1.0004163309931744 1.248377937823532 0.80702427774667729 0.85097430646419514 0.75354682467877898 0.6779241207987069 1.3403260167688134 0.70406510680913914 0.61845063231885422 0.5560939162969587 0.52826752327382565
leaf_count=10 14 28 10 29 34 24 23 9 14 19 5 28 9 30 23 18 24 27
internal_value=0 -0.00520995 -0.0176525 -0.0241672 -0.000554786 0.0161805 0.0257302 -0.040151 -0.0461341 -0.0522212 -0.0550996 -0.0533869 -0.0524752 -0.0519873 -0.0525747 -0.0514985 -0.0513135 -0.0511491
internal_weight=0 25.462 18.1593 16.4173 6.62716 5.05864 7.30272 9.79018 8.78976 8.08505 7.27803 6.42705 5.17867 4.50075 2.04439 2.45636 1.83791 1.08436
internal_count=378 364 313 303 87 53 51 216 207 197 178 173 159 150 53 97 79 51
is_linear=0
shrinkage=0.05


Tree=49
num_leaves=18
num_cat=0
split_feature=5 22 27 9 11 41 26 6 20 32 9 25 4 1 11 36 37
split_gain=3.70715 3.68578 4.36087 3.93372 2.47045 2.68396 2.29948 0.69941 0.040967 0.00330139 0.000936296 0.000700913 0.000289196 0.000205511 0.000192261 0.000135155 4.76173e-05
threshold=13.880300000000002 1.6725225000000001 0.033462000000000006 172.99349125000001 0.66074580000000005 13667.948465000003 1530.6617940000003 4206.9187700000011 197.95240500000003 106.26033600000001 178.40342500000003 4.0894495000000015 5.0274825000000005 3167.7098200000005 0.62435169000000013 5.860626314000001 1.3199350000000003
decision_type=2 2 2 2 2 2 2 2 2 2 2 2 2 2 2 2 2
left_child=1 2 3 4 5 -1 -3 -7 10 11 12 13 15 -6 -14 16 -4
right_child=-2 6 8 -5 9 7 -8 -9 -10 -11 -12 -13 14 -15 -16 -17 -18
leaf_value=0.044719403937637008 0.062200813282454484 0.044661420590598223 -0.051271748874982127 0.062009101916764148 -0.051540328919426642 0.0024099183296548542 -0.0037991550553855297 -0.055364461152611726 -0.065019015328292115 -0.05672945011953015 -0.053869895530572358 -0.05422377347619825 -0.053180826852881516 -0.052842554407261322 -0.052211556929546904 -0.052408941303770357 -0.051876510336258397
leaf_weight=2.2550485376268679 2.2312061637639991 4.5787916369736177 0.86458370555192121 2.0488228052854538 0.58054625615477584 0.85774914175272021 5.2599388547241688 1.3456682451069353 0.75528687424957741 0.82496045529842366 1.06314205750823 0.68122213520109642 0.86858243308961425 0.63366322405636311 1.2448681239038704 0.57902593538165081 0.52200955711305141
leaf_count=26 14 30 39 13 24 14 33 30 9 12 19 14 19 16 35 15 16
internal_value=0 -0.0050673 -0.0205625 0.000900668 -0.0165395 0.006372 0.0187536 -0.032874 -0.0541454 -0.0540892 -0.0525483 -0.0529401 -0.0522039 -0.0522199 -0.0526099 -0.0517673 -0.0514994
internal_weight=0 24.9639 15.1252 9.22768 7.17886 4.45847 9.83873 2.20342 5.8975 2.72039 5.14221 1.89543 4.07907 1.21421 2.11345 1.96562 1.38659
internal_count=378 364 301 149 136 70 63 44 152 66 143 54 124 40 54 70 55
is_linear=0
shrinkage=0.05


end of trees

feature_importances:
AB=77
BQ=71
CR=70
DU=60
BC=32
FR=32
DA=28
DI=25
EH=24
FI=22
CC=20
BN=19
CD_=19
FE=19
FL=18
EP=16
GL=16
DE=15
DY=15
EE=15
AF=14
FD_=13
DN=12
EB=11
CS=10
CW_=10
BP=9
AX=8
EL=8
GH=8
EG=7
FC=7
GF=7
GE=6
BD_=5
BR=5
CF=5
DF=5
EU=5
GI=5
AM=4
FS=3
AR=1
GB=1

parameters:
[boosting: gbdt]
[objective: binary]
[metric: binary_logloss]
[tree_learner: serial]
[device_type: cpu]
[data: ]
[valid: ]
[num_iterations: 50]
[learning_rate: 0.05]
[num_leaves: 31]
[num_threads: 0]
[deterministic: 0]
[force_col_wise: 0]
[force_row_wise: 0]
[histogram_pool_size: -1]
[max_depth: -1]
[min_data_in_leaf: 20]
[min_sum_hessian_in_leaf: 0.001]
[bagging_fraction: 0.8]
[pos_bagging_fraction: 1]
[neg_bagging_fraction: 1]
[bagging_freq: 5]
[bagging_seed: 3]
[feature_fraction: 0.9]
[feature_fraction_bynode: 1]
[feature_fraction_seed: 2]
[extra_trees: 0]
[extra_seed: 6]
[early_stopping_round: 10]
[first_metric_only: 0]
[max_delta_step: 0]
[lambda_l1: 0]
[lambda_l2: 0]
[linear_lambda: 0]
[min_gain_to_split: 0]
[drop_rate: 0.1]
[max_drop: 50]
[skip_drop: 0.5]
[xgboost_dart_mode: 0]
[uniform_drop: 0]
[drop_seed: 4]
[top_rate: 0.2]
[other_rate: 0.1]
[min_data_per_group: 100]
[max_cat_threshold: 32]
[cat_l2: 10]
[cat_smooth: 10]
[max_cat_to_onehot: 4]
[top_k: 20]
[monotone_constraints: ]
[monotone_constraints_method: basic]
[monotone_penalty: 0]
[feature_contri: ]
[forcedsplits_filename: ]
[refit_decay_rate: 0.9]
[cegb_tradeoff: 1]
[cegb_penalty_split: 0]
[cegb_penalty_feature_lazy: ]
[cegb_penalty_feature_coupled: ]
[path_smooth: 0]
[interaction_constraints: ]
[verbosity: 0]
[saved_feature_importance_type: 0]
[linear_tree: 0]
[max_bin: 255]
[max_bin_by_feature: ]
[min_data_in_bin: 3]
[bin_construct_sample_cnt: 200000]
[data_random_seed: 1]
[is_enable_sparse: 1]
[enable_bundle: 1]
[use_missing: 1]
[zero_as_missing: 0]
[feature_pre_filter: 1]
[pre_partition: 0]
[two_round: 0]
[header: 0]
[label_column: ]
[weight_column: ]
[group_column: ]
[ignore_column: ]
[categorical_feature: ]
[forcedbins_filename: ]
[precise_float_parser: 0]
[objective_seed: 5]
[num_class: 1]
[is_unbalance: 0]
[scale_pos_weight: 1]
[sigmoid: 1]
[boost_from_average: 1]
[reg_sqrt: 0]
[alpha: 0.9]
[fair_c: 1]
[poisson_max_delta_step: 0.7]
[tweedie_variance_power: 1.5]
[lambdarank_truncation_level: 30]
[lambdarank_norm: 1]
[label_gain: ]
[eval_at: ]
[multi_error_top_k: 1]
[auc_mu_weights: ]
[num_machines: 1]
[local_listen_port: 12400]
[time_out: 120]
[machine_list_filename: ]
[machines: ]
[gpu_platform_id: -1]
[gpu_device_id: -1]
[gpu_use_dp: 0]
[num_gpu: 1]

end of parameters

pandas_categorical:[]
